digraph Tree {
node [shape=box, style="filled, rounded", color="black", fontname="helvetica"] ;
edge [fontname="helvetica"] ;
0 [label=<x<SUB>17</SUB> &le; 1.628<br/>gini = 0.999<br/>samples = 1780<br/>value = [1, 1, 1 ... 1, 1, 1]>, fillcolor="#ffffff"] ;
1 [label=<x<SUB>30</SUB> &le; -0.864<br/>gini = 0.999<br/>samples = 1732<br/>value = [1, 1, 1 ... 1, 1, 1]>, fillcolor="#ffffff"] ;
0 -> 1 [labeldistance=2.5, labelangle=45, headlabel="True"] ;
2 [label=<x<SUB>4</SUB> &le; 4.5<br/>gini = 0.982<br/>samples = 59<br/>value = [0, 0, 0 ... 0, 0, 0]>, fillcolor="#ffffff"] ;
1 -> 2 ;
3 [label=<x<SUB>1</SUB> &le; 1.5<br/>gini = 0.979<br/>samples = 47<br/>value = [0, 0, 0 ... 0, 0, 0]>, fillcolor="#ffffff"] ;
2 -> 3 ;
4 [label=<x<SUB>2</SUB> &le; 1.5<br/>gini = 0.964<br/>samples = 28<br/>value = [0, 0, 0 ... 0, 0, 0]>, fillcolor="#ffffff"] ;
3 -> 4 ;
5 [label=<x<SUB>3</SUB> &le; 1.5<br/>gini = 0.929<br/>samples = 14<br/>value = [0, 0, 0 ... 0, 0, 0]>, fillcolor="#ffffff"] ;
4 -> 5 ;
6 [label=<x<SUB>4</SUB> &le; 2.0<br/>gini = 0.667<br/>samples = 3<br/>value = [0, 0, 0 ... 0, 0, 0]>, fillcolor="#ffffff"] ;
5 -> 6 ;
7 [label=<gini = 0.0<br/>samples = 1<br/>value = [0, 0, 0 ... 0, 0, 0]>, fillcolor="#39e556"] ;
6 -> 7 ;
8 [label=<x<SUB>4</SUB> &le; 3.5<br/>gini = 0.5<br/>samples = 2<br/>value = [0, 0, 0 ... 0, 0, 0]>, fillcolor="#ffffff"] ;
6 -> 8 ;
9 [label=<gini = 0.0<br/>samples = 1<br/>value = [0, 0, 0 ... 0, 0, 0]>, fillcolor="#e53992"] ;
8 -> 9 ;
10 [label=<gini = 0.0<br/>samples = 1<br/>value = [0, 0, 0 ... 0, 0, 0]>, fillcolor="#e53983"] ;
8 -> 10 ;
11 [label=<x<SUB>4</SUB> &le; 1.5<br/>gini = 0.909<br/>samples = 11<br/>value = [0, 0, 0 ... 0, 0, 0]>, fillcolor="#ffffff"] ;
5 -> 11 ;
12 [label=<x<SUB>3</SUB> &le; 50.0<br/>gini = 0.5<br/>samples = 2<br/>value = [0, 0, 0 ... 0, 0, 0]>, fillcolor="#ffffff"] ;
11 -> 12 ;
13 [label=<gini = 0.0<br/>samples = 1<br/>value = [0, 0, 0 ... 0, 0, 0]>, fillcolor="#7839e5"] ;
12 -> 13 ;
14 [label=<gini = 0.0<br/>samples = 1<br/>value = [0, 0, 0 ... 0, 0, 0]>, fillcolor="#39bde5"] ;
12 -> 14 ;
15 [label=<x<SUB>3</SUB> &le; 2.5<br/>gini = 0.889<br/>samples = 9<br/>value = [0, 0, 0 ... 0, 0, 0]>, fillcolor="#ffffff"] ;
11 -> 15 ;
16 [label=<x<SUB>5</SUB> &le; 6.5<br/>gini = 0.667<br/>samples = 3<br/>value = [0, 0, 0 ... 0, 0, 0]>, fillcolor="#ffffff"] ;
15 -> 16 ;
17 [label=<gini = 0.0<br/>samples = 1<br/>value = [0, 0, 0 ... 0, 0, 0]>, fillcolor="#e5397b"] ;
16 -> 17 ;
18 [label=<x<SUB>5</SUB> &le; 14.0<br/>gini = 0.5<br/>samples = 2<br/>value = [0, 0, 0 ... 0, 0, 0]>, fillcolor="#ffffff"] ;
16 -> 18 ;
19 [label=<gini = 0.0<br/>samples = 1<br/>value = [0, 0, 0 ... 0, 0, 0]>, fillcolor="#da39e5"] ;
18 -> 19 ;
20 [label=<gini = 0.0<br/>samples = 1<br/>value = [0, 0, 0 ... 0, 0, 0]>, fillcolor="#ae39e5"] ;
18 -> 20 ;
21 [label=<x<SUB>4</SUB> &le; 2.5<br/>gini = 0.833<br/>samples = 6<br/>value = [0, 0, 0 ... 0, 0, 0]>, fillcolor="#ffffff"] ;
15 -> 21 ;
22 [label=<x<SUB>5</SUB> &le; 25.5<br/>gini = 0.5<br/>samples = 2<br/>value = [0, 0, 0 ... 0, 0, 0]>, fillcolor="#ffffff"] ;
21 -> 22 ;
23 [label=<gini = 0.0<br/>samples = 1<br/>value = [0, 0, 0 ... 0, 0, 0]>, fillcolor="#e55039"] ;
22 -> 23 ;
24 [label=<gini = 0.0<br/>samples = 1<br/>value = [0, 0, 0 ... 0, 0, 0]>, fillcolor="#a039e5"] ;
22 -> 24 ;
25 [label=<x<SUB>3</SUB> &le; 3.5<br/>gini = 0.75<br/>samples = 4<br/>value = [0, 0, 0 ... 0, 0, 0]>, fillcolor="#ffffff"] ;
21 -> 25 ;
26 [label=<x<SUB>4</SUB> &le; 3.5<br/>gini = 0.5<br/>samples = 2<br/>value = [0, 0, 0 ... 0, 0, 0]>, fillcolor="#ffffff"] ;
25 -> 26 ;
27 [label=<gini = 0.0<br/>samples = 1<br/>value = [0, 0, 0 ... 0, 0, 0]>, fillcolor="#6439e5"] ;
26 -> 27 ;
28 [label=<gini = 0.0<br/>samples = 1<br/>value = [0, 0, 0 ... 0, 0, 0]>, fillcolor="#e53981"] ;
26 -> 28 ;
29 [label=<x<SUB>4</SUB> &le; 3.5<br/>gini = 0.5<br/>samples = 2<br/>value = [0, 0, 0 ... 0, 0, 0]>, fillcolor="#ffffff"] ;
25 -> 29 ;
30 [label=<gini = 0.0<br/>samples = 1<br/>value = [0, 0, 0 ... 0, 0, 0]>, fillcolor="#c839e5"] ;
29 -> 30 ;
31 [label=<gini = 0.0<br/>samples = 1<br/>value = [0, 0, 0 ... 0, 0, 0]>, fillcolor="#e56d39"] ;
29 -> 31 ;
32 [label=<x<SUB>4</SUB> &le; 1.5<br/>gini = 0.929<br/>samples = 14<br/>value = [0, 0, 0 ... 0, 0, 0]>, fillcolor="#ffffff"] ;
4 -> 32 ;
33 [label=<x<SUB>3</SUB> &le; 1.5<br/>gini = 0.75<br/>samples = 4<br/>value = [0, 0, 0 ... 0, 0, 0]>, fillcolor="#ffffff"] ;
32 -> 33 ;
34 [label=<gini = 0.0<br/>samples = 1<br/>value = [0, 0, 0 ... 0, 0, 0]>, fillcolor="#e5c839"] ;
33 -> 34 ;
35 [label=<x<SUB>3</SUB> &le; 2.5<br/>gini = 0.667<br/>samples = 3<br/>value = [0, 0, 0 ... 0, 0, 0]>, fillcolor="#ffffff"] ;
33 -> 35 ;
36 [label=<gini = 0.0<br/>samples = 1<br/>value = [0, 0, 0 ... 0, 0, 0]>, fillcolor="#3939e5"] ;
35 -> 36 ;
37 [label=<x<SUB>3</SUB> &le; 50.5<br/>gini = 0.5<br/>samples = 2<br/>value = [0, 0, 0 ... 0, 0, 0]>, fillcolor="#ffffff"] ;
35 -> 37 ;
38 [label=<gini = 0.0<br/>samples = 1<br/>value = [0, 0, 0 ... 0, 0, 0]>, fillcolor="#e5393c"] ;
37 -> 38 ;
39 [label=<gini = 0.0<br/>samples = 1<br/>value = [0, 0, 0 ... 0, 0, 0]>, fillcolor="#7839e5"] ;
37 -> 39 ;
40 [label=<x<SUB>3</SUB> &le; 1.5<br/>gini = 0.9<br/>samples = 10<br/>value = [0, 0, 0 ... 0, 0, 0]>, fillcolor="#ffffff"] ;
32 -> 40 ;
41 [label=<x<SUB>5</SUB> &le; 1.5<br/>gini = 0.667<br/>samples = 3<br/>value = [0, 0, 0 ... 0, 0, 0]>, fillcolor="#ffffff"] ;
40 -> 41 ;
42 [label=<gini = 0.0<br/>samples = 1<br/>value = [0, 0, 0 ... 0, 0, 0]>, fillcolor="#e5a339"] ;
41 -> 42 ;
43 [label=<x<SUB>5</SUB> &le; 3.5<br/>gini = 0.5<br/>samples = 2<br/>value = [0, 0, 0 ... 0, 0, 0]>, fillcolor="#ffffff"] ;
41 -> 43 ;
44 [label=<gini = 0.0<br/>samples = 1<br/>value = [0, 0, 0 ... 0, 0, 0]>, fillcolor="#dfe539"] ;
43 -> 44 ;
45 [label=<gini = 0.0<br/>samples = 1<br/>value = [0, 0, 0 ... 0, 0, 0]>, fillcolor="#e539a9"] ;
43 -> 45 ;
46 [label=<x<SUB>3</SUB> &le; 2.5<br/>gini = 0.857<br/>samples = 7<br/>value = [0, 0, 0 ... 0, 0, 0]>, fillcolor="#ffffff"] ;
40 -> 46 ;
47 [label=<x<SUB>5</SUB> &le; 8.5<br/>gini = 0.5<br/>samples = 2<br/>value = [0, 0, 0 ... 0, 0, 0]>, fillcolor="#ffffff"] ;
46 -> 47 ;
48 [label=<gini = 0.0<br/>samples = 1<br/>value = [0, 0, 0 ... 0, 0, 0]>, fillcolor="#8fe539"] ;
47 -> 48 ;
49 [label=<gini = 0.0<br/>samples = 1<br/>value = [0, 0, 0 ... 0, 0, 0]>, fillcolor="#39a9e5"] ;
47 -> 49 ;
50 [label=<x<SUB>5</SUB> &le; 11.0<br/>gini = 0.8<br/>samples = 5<br/>value = [0, 0, 0 ... 0, 0, 0]>, fillcolor="#ffffff"] ;
46 -> 50 ;
51 [label=<gini = 0.0<br/>samples = 1<br/>value = [0, 0, 0 ... 0, 0, 0]>, fillcolor="#5639e5"] ;
50 -> 51 ;
52 [label=<x<SUB>4</SUB> &le; 2.5<br/>gini = 0.75<br/>samples = 4<br/>value = [0, 0, 0 ... 0, 0, 0]>, fillcolor="#ffffff"] ;
50 -> 52 ;
53 [label=<x<SUB>3</SUB> &le; 3.5<br/>gini = 0.5<br/>samples = 2<br/>value = [0, 0, 0 ... 0, 0, 0]>, fillcolor="#ffffff"] ;
52 -> 53 ;
54 [label=<gini = 0.0<br/>samples = 1<br/>value = [0, 0, 0 ... 0, 0, 0]>, fillcolor="#8f39e5"] ;
53 -> 54 ;
55 [label=<gini = 0.0<br/>samples = 1<br/>value = [0, 0, 0 ... 0, 0, 0]>, fillcolor="#c339e5"] ;
53 -> 55 ;
56 [label=<x<SUB>4</SUB> &le; 3.5<br/>gini = 0.5<br/>samples = 2<br/>value = [0, 0, 0 ... 0, 0, 0]>, fillcolor="#ffffff"] ;
52 -> 56 ;
57 [label=<gini = 0.0<br/>samples = 1<br/>value = [0, 0, 0 ... 0, 0, 0]>, fillcolor="#e539ac"] ;
56 -> 57 ;
58 [label=<gini = 0.0<br/>samples = 1<br/>value = [0, 0, 0 ... 0, 0, 0]>, fillcolor="#e56439"] ;
56 -> 58 ;
59 [label=<x<SUB>2</SUB> &le; 1.5<br/>gini = 0.947<br/>samples = 19<br/>value = [0, 0, 0 ... 0, 0, 0]>, fillcolor="#ffffff"] ;
3 -> 59 ;
60 [label=<x<SUB>3</SUB> &le; 1.5<br/>gini = 0.889<br/>samples = 9<br/>value = [0, 0, 0 ... 0, 0, 0]>, fillcolor="#ffffff"] ;
59 -> 60 ;
61 [label=<gini = 0.0<br/>samples = 1<br/>value = [0, 0, 0 ... 0, 0, 0]>, fillcolor="#9239e5"] ;
60 -> 61 ;
62 [label=<x<SUB>4</SUB> &le; 1.5<br/>gini = 0.875<br/>samples = 8<br/>value = [0, 0, 0 ... 0, 0, 0]>, fillcolor="#ffffff"] ;
60 -> 62 ;
63 [label=<gini = 0.0<br/>samples = 1<br/>value = [0, 0, 0 ... 0, 0, 0]>, fillcolor="#dc39e5"] ;
62 -> 63 ;
64 [label=<x<SUB>5</SUB> &le; 1.5<br/>gini = 0.857<br/>samples = 7<br/>value = [0, 0, 0 ... 0, 0, 0]>, fillcolor="#ffffff"] ;
62 -> 64 ;
65 [label=<gini = 0.0<br/>samples = 1<br/>value = [0, 0, 0 ... 0, 0, 0]>, fillcolor="#39c0e5"] ;
64 -> 65 ;
66 [label=<x<SUB>4</SUB> &le; 2.5<br/>gini = 0.833<br/>samples = 6<br/>value = [0, 0, 0 ... 0, 0, 0]>, fillcolor="#ffffff"] ;
64 -> 66 ;
67 [label=<gini = 0.0<br/>samples = 1<br/>value = [0, 0, 0 ... 0, 0, 0]>, fillcolor="#39c8e5"] ;
66 -> 67 ;
68 [label=<x<SUB>4</SUB> &le; 3.5<br/>gini = 0.8<br/>samples = 5<br/>value = [0, 0, 0 ... 0, 0, 0]>, fillcolor="#ffffff"] ;
66 -> 68 ;
69 [label=<x<SUB>5</SUB> &le; 9.0<br/>gini = 0.5<br/>samples = 2<br/>value = [0, 0, 0 ... 0, 0, 0]>, fillcolor="#ffffff"] ;
68 -> 69 ;
70 [label=<gini = 0.0<br/>samples = 1<br/>value = [0, 0, 0 ... 0, 0, 0]>, fillcolor="#e5396f"] ;
69 -> 70 ;
71 [label=<gini = 0.0<br/>samples = 1<br/>value = [0, 0, 0 ... 0, 0, 0]>, fillcolor="#39b7e5"] ;
69 -> 71 ;
72 [label=<x<SUB>5</SUB> &le; 7.0<br/>gini = 0.667<br/>samples = 3<br/>value = [0, 0, 0 ... 0, 0, 0]>, fillcolor="#ffffff"] ;
68 -> 72 ;
73 [label=<gini = 0.0<br/>samples = 1<br/>value = [0, 0, 0 ... 0, 0, 0]>, fillcolor="#e57539"] ;
72 -> 73 ;
74 [label=<x<SUB>5</SUB> &le; 19.0<br/>gini = 0.5<br/>samples = 2<br/>value = [0, 0, 0 ... 0, 0, 0]>, fillcolor="#ffffff"] ;
72 -> 74 ;
75 [label=<gini = 0.0<br/>samples = 1<br/>value = [0, 0, 0 ... 0, 0, 0]>, fillcolor="#e57839"] ;
74 -> 75 ;
76 [label=<gini = 0.0<br/>samples = 1<br/>value = [0, 0, 0 ... 0, 0, 0]>, fillcolor="#e54a39"] ;
74 -> 76 ;
77 [label=<x<SUB>5</SUB> &le; 3.0<br/>gini = 0.9<br/>samples = 10<br/>value = [0, 0, 0 ... 0, 0, 0]>, fillcolor="#ffffff"] ;
59 -> 77 ;
78 [label=<gini = 0.0<br/>samples = 1<br/>value = [0, 0, 0 ... 0, 0, 0]>, fillcolor="#61e539"] ;
77 -> 78 ;
79 [label=<x<SUB>4</SUB> &le; 1.5<br/>gini = 0.889<br/>samples = 9<br/>value = [0, 0, 0 ... 0, 0, 0]>, fillcolor="#ffffff"] ;
77 -> 79 ;
80 [label=<x<SUB>3</SUB> &le; 1.5<br/>gini = 0.75<br/>samples = 4<br/>value = [0, 0, 0 ... 0, 0, 0]>, fillcolor="#ffffff"] ;
79 -> 80 ;
81 [label=<gini = 0.0<br/>samples = 1<br/>value = [0, 0, 0 ... 0, 0, 0]>, fillcolor="#e5bd39"] ;
80 -> 81 ;
82 [label=<x<SUB>5</SUB> &le; 6.5<br/>gini = 0.667<br/>samples = 3<br/>value = [0, 0, 0 ... 0, 0, 0]>, fillcolor="#ffffff"] ;
80 -> 82 ;
83 [label=<gini = 0.0<br/>samples = 1<br/>value = [0, 0, 0 ... 0, 0, 0]>, fillcolor="#e5c339"] ;
82 -> 83 ;
84 [label=<x<SUB>3</SUB> &le; 50.0<br/>gini = 0.5<br/>samples = 2<br/>value = [0, 0, 0 ... 0, 0, 0]>, fillcolor="#ffffff"] ;
82 -> 84 ;
85 [label=<gini = 0.0<br/>samples = 1<br/>value = [0, 0, 0 ... 0, 0, 0]>, fillcolor="#72e539"] ;
84 -> 85 ;
86 [label=<gini = 0.0<br/>samples = 1<br/>value = [0, 0, 0 ... 0, 0, 0]>, fillcolor="#39e5a3"] ;
84 -> 86 ;
87 [label=<x<SUB>3</SUB> &le; 2.5<br/>gini = 0.8<br/>samples = 5<br/>value = [0, 0, 0 ... 0, 0, 0]>, fillcolor="#ffffff"] ;
79 -> 87 ;
88 [label=<gini = 0.0<br/>samples = 1<br/>value = [0, 0, 0 ... 0, 0, 0]>, fillcolor="#e53995"] ;
87 -> 88 ;
89 [label=<x<SUB>3</SUB> &le; 3.5<br/>gini = 0.75<br/>samples = 4<br/>value = [0, 0, 0 ... 0, 0, 0]>, fillcolor="#ffffff"] ;
87 -> 89 ;
90 [label=<x<SUB>4</SUB> &le; 3.5<br/>gini = 0.5<br/>samples = 2<br/>value = [0, 0, 0 ... 0, 0, 0]>, fillcolor="#ffffff"] ;
89 -> 90 ;
91 [label=<gini = 0.0<br/>samples = 1<br/>value = [0, 0, 0 ... 0, 0, 0]>, fillcolor="#e5ce39"] ;
90 -> 91 ;
92 [label=<gini = 0.0<br/>samples = 1<br/>value = [0, 0, 0 ... 0, 0, 0]>, fillcolor="#3972e5"] ;
90 -> 92 ;
93 [label=<x<SUB>5</SUB> &le; 14.0<br/>gini = 0.5<br/>samples = 2<br/>value = [0, 0, 0 ... 0, 0, 0]>, fillcolor="#ffffff"] ;
89 -> 93 ;
94 [label=<gini = 0.0<br/>samples = 1<br/>value = [0, 0, 0 ... 0, 0, 0]>, fillcolor="#e53f39"] ;
93 -> 94 ;
95 [label=<gini = 0.0<br/>samples = 1<br/>value = [0, 0, 0 ... 0, 0, 0]>, fillcolor="#e55639"] ;
93 -> 95 ;
96 [label=<x<SUB>3</SUB> &le; 3.5<br/>gini = 0.889<br/>samples = 12<br/>value = [0, 0, 0 ... 0, 0, 0]>, fillcolor="#ffffff"] ;
2 -> 96 ;
97 [label=<x<SUB>5</SUB> &le; 5.0<br/>gini = 0.88<br/>samples = 10<br/>value = [0, 0, 0 ... 0, 0, 0]>, fillcolor="#fcede9"] ;
96 -> 97 ;
98 [label=<x<SUB>5</SUB> &le; 3.5<br/>gini = 0.625<br/>samples = 4<br/>value = [0, 0, 0 ... 0, 0, 0]>, fillcolor="#f6c8bd"] ;
97 -> 98 ;
99 [label=<x<SUB>3</SUB> &le; 2.0<br/>gini = 0.5<br/>samples = 2<br/>value = [0, 0, 0 ... 0, 0, 0]>, fillcolor="#ffffff"] ;
98 -> 99 ;
100 [label=<gini = 0.0<br/>samples = 1<br/>value = [0, 0, 0 ... 0, 0, 0]>, fillcolor="#e5c839"] ;
99 -> 100 ;
101 [label=<gini = 0.0<br/>samples = 1<br/>value = [0, 0, 0 ... 0, 0, 0]>, fillcolor="#e55b39"] ;
99 -> 101 ;
102 [label=<gini = 0.0<br/>samples = 2<br/>value = [0, 0, 0 ... 0, 0, 0]>, fillcolor="#e55b39"] ;
98 -> 102 ;
103 [label=<x<SUB>2</SUB> &le; 1.5<br/>gini = 0.833<br/>samples = 6<br/>value = [0, 0, 0 ... 0, 0, 0]>, fillcolor="#ffffff"] ;
97 -> 103 ;
104 [label=<x<SUB>5</SUB> &le; 7.5<br/>gini = 0.667<br/>samples = 3<br/>value = [0, 0, 0 ... 0, 0, 0]>, fillcolor="#ffffff"] ;
103 -> 104 ;
105 [label=<gini = 0.0<br/>samples = 1<br/>value = [0, 0, 0 ... 0, 0, 0]>, fillcolor="#ac39e5"] ;
104 -> 105 ;
106 [label=<x<SUB>3</SUB> &le; 2.5<br/>gini = 0.5<br/>samples = 2<br/>value = [0, 0, 0 ... 0, 0, 0]>, fillcolor="#ffffff"] ;
104 -> 106 ;
107 [label=<gini = 0.0<br/>samples = 1<br/>value = [0, 0, 0 ... 0, 0, 0]>, fillcolor="#e539d7"] ;
106 -> 107 ;
108 [label=<gini = 0.0<br/>samples = 1<br/>value = [0, 0, 0 ... 0, 0, 0]>, fillcolor="#e54a39"] ;
106 -> 108 ;
109 [label=<x<SUB>3</SUB> &le; 1.5<br/>gini = 0.667<br/>samples = 3<br/>value = [0, 0, 0 ... 0, 0, 0]>, fillcolor="#ffffff"] ;
103 -> 109 ;
110 [label=<gini = 0.0<br/>samples = 1<br/>value = [0, 0, 0 ... 0, 0, 0]>, fillcolor="#e539a9"] ;
109 -> 110 ;
111 [label=<x<SUB>5</SUB> &le; 19.0<br/>gini = 0.5<br/>samples = 2<br/>value = [0, 0, 0 ... 0, 0, 0]>, fillcolor="#ffffff"] ;
109 -> 111 ;
112 [label=<gini = 0.0<br/>samples = 1<br/>value = [0, 0, 0 ... 0, 0, 0]>, fillcolor="#393ce5"] ;
111 -> 112 ;
113 [label=<gini = 0.0<br/>samples = 1<br/>value = [0, 0, 0 ... 0, 0, 0]>, fillcolor="#e53989"] ;
111 -> 113 ;
114 [label=<gini = 0.0<br/>samples = 2<br/>value = [0, 0, 0 ... 0, 0, 0]>, fillcolor="#e57b39"] ;
96 -> 114 ;
115 [label=<x<SUB>5</SUB> &le; 3.5<br/>gini = 0.999<br/>samples = 1673<br/>value = [1.0, 1.0, 1.0 ... 1.0, 1.0, 1.0]>, fillcolor="#ffffff"] ;
1 -> 115 ;
116 [label=<x<SUB>27</SUB> &le; 0.904<br/>gini = 0.996<br/>samples = 245<br/>value = [1, 1, 1 ... 1, 0, 1]>, fillcolor="#ffffff"] ;
115 -> 116 ;
117 [label=<x<SUB>24</SUB> &le; 1.351<br/>gini = 0.995<br/>samples = 232<br/>value = [1, 1, 1 ... 1, 0, 1]>, fillcolor="#ffffff"] ;
116 -> 117 ;
118 [label=<x<SUB>29</SUB> &le; -1.289<br/>gini = 0.995<br/>samples = 218<br/>value = [1, 1, 1 ... 1, 0, 1]>, fillcolor="#ffffff"] ;
117 -> 118 ;
119 [label=<x<SUB>1</SUB> &le; 1.5<br/>gini = 0.93<br/>samples = 16<br/>value = [0, 0, 0 ... 0, 0, 0]>, fillcolor="#fdf4f2"] ;
118 -> 119 ;
120 [label=<x<SUB>15</SUB> &le; 0.215<br/>gini = 0.875<br/>samples = 8<br/>value = [0, 0, 0 ... 0, 0, 0]>, fillcolor="#ffffff"] ;
119 -> 120 ;
121 [label=<x<SUB>4</SUB> &le; 1.5<br/>gini = 0.833<br/>samples = 6<br/>value = [0, 0, 0 ... 0, 0, 0]>, fillcolor="#ffffff"] ;
120 -> 121 ;
122 [label=<gini = 0.0<br/>samples = 1<br/>value = [0, 0, 0 ... 0, 0, 0]>, fillcolor="#e5397b"] ;
121 -> 122 ;
123 [label=<x<SUB>3</SUB> &le; 1.5<br/>gini = 0.8<br/>samples = 5<br/>value = [0, 0, 0 ... 0, 0, 0]>, fillcolor="#ffffff"] ;
121 -> 123 ;
124 [label=<x<SUB>5</SUB> &le; 2.0<br/>gini = 0.5<br/>samples = 2<br/>value = [0, 0, 0 ... 0, 0, 0]>, fillcolor="#ffffff"] ;
123 -> 124 ;
125 [label=<gini = 0.0<br/>samples = 1<br/>value = [0, 0, 0 ... 0, 0, 0]>, fillcolor="#39a6e5"] ;
124 -> 125 ;
126 [label=<gini = 0.0<br/>samples = 1<br/>value = [0, 0, 0 ... 0, 0, 0]>, fillcolor="#39e57e"] ;
124 -> 126 ;
127 [label=<x<SUB>4</SUB> &le; 3.5<br/>gini = 0.667<br/>samples = 3<br/>value = [0, 0, 0 ... 0, 0, 0]>, fillcolor="#ffffff"] ;
123 -> 127 ;
128 [label=<gini = 0.0<br/>samples = 1<br/>value = [0, 0, 0 ... 0, 0, 0]>, fillcolor="#3fe539"] ;
127 -> 128 ;
129 [label=<x<SUB>3</SUB> &le; 51.0<br/>gini = 0.5<br/>samples = 2<br/>value = [0, 0, 0 ... 0, 0, 0]>, fillcolor="#ffffff"] ;
127 -> 129 ;
130 [label=<gini = 0.0<br/>samples = 1<br/>value = [0, 0, 0 ... 0, 0, 0]>, fillcolor="#e53941"] ;
129 -> 130 ;
131 [label=<gini = 0.0<br/>samples = 1<br/>value = [0, 0, 0 ... 0, 0, 0]>, fillcolor="#9a39e5"] ;
129 -> 131 ;
132 [label=<x<SUB>4</SUB> &le; 4.5<br/>gini = 0.5<br/>samples = 2<br/>value = [0, 0, 0 ... 0, 0, 0]>, fillcolor="#ffffff"] ;
120 -> 132 ;
133 [label=<gini = 0.0<br/>samples = 1<br/>value = [0, 0, 0 ... 0, 0, 0]>, fillcolor="#39e5d7"] ;
132 -> 133 ;
134 [label=<gini = 0.0<br/>samples = 1<br/>value = [0, 0, 0 ... 0, 0, 0]>, fillcolor="#6439e5"] ;
132 -> 134 ;
135 [label=<x<SUB>31</SUB> &le; 0.602<br/>gini = 0.844<br/>samples = 8<br/>value = [0, 0, 0 ... 0, 0, 0]>, fillcolor="#fbe8e3"] ;
119 -> 135 ;
136 [label=<x<SUB>4</SUB> &le; 4.0<br/>gini = 0.625<br/>samples = 4<br/>value = [0, 0, 0 ... 0, 0, 0]>, fillcolor="#f6c9bd"] ;
135 -> 136 ;
137 [label=<gini = 0.0<br/>samples = 1<br/>value = [0, 0, 0 ... 0, 0, 0]>, fillcolor="#e5b739"] ;
136 -> 137 ;
138 [label=<x<SUB>5</SUB> &le; 1.5<br/>gini = 0.444<br/>samples = 3<br/>value = [0, 0, 0 ... 0, 0, 0]>, fillcolor="#f2ae9c"] ;
136 -> 138 ;
139 [label=<gini = 0.0<br/>samples = 1<br/>value = [0, 0, 0 ... 0, 0, 0]>, fillcolor="#39e592"] ;
138 -> 139 ;
140 [label=<gini = 0.0<br/>samples = 2<br/>value = [0, 0, 0 ... 0, 0, 0]>, fillcolor="#e55e39"] ;
138 -> 140 ;
141 [label=<x<SUB>3</SUB> &le; 2.5<br/>gini = 0.75<br/>samples = 4<br/>value = [0, 0, 0 ... 0, 0, 0]>, fillcolor="#ffffff"] ;
135 -> 141 ;
142 [label=<x<SUB>2</SUB> &le; 1.5<br/>gini = 0.5<br/>samples = 2<br/>value = [0, 0, 0 ... 0, 0, 0]>, fillcolor="#ffffff"] ;
141 -> 142 ;
143 [label=<gini = 0.0<br/>samples = 1<br/>value = [0, 0, 0 ... 0, 0, 0]>, fillcolor="#e58339"] ;
142 -> 143 ;
144 [label=<gini = 0.0<br/>samples = 1<br/>value = [0, 0, 0 ... 0, 0, 0]>, fillcolor="#e5b139"] ;
142 -> 144 ;
145 [label=<x<SUB>2</SUB> &le; 1.5<br/>gini = 0.5<br/>samples = 2<br/>value = [0, 0, 0 ... 0, 0, 0]>, fillcolor="#ffffff"] ;
141 -> 145 ;
146 [label=<gini = 0.0<br/>samples = 1<br/>value = [0, 0, 0 ... 0, 0, 0]>, fillcolor="#e53f39"] ;
145 -> 146 ;
147 [label=<gini = 0.0<br/>samples = 1<br/>value = [0, 0, 0 ... 0, 0, 0]>, fillcolor="#e5398c"] ;
145 -> 147 ;
148 [label=<x<SUB>16</SUB> &le; 0.807<br/>gini = 0.995<br/>samples = 202<br/>value = [1, 1, 1 ... 1, 0, 1]>, fillcolor="#ffffff"] ;
118 -> 148 ;
149 [label=<x<SUB>0</SUB> &le; 29.5<br/>gini = 0.994<br/>samples = 183<br/>value = [1, 1, 1 ... 1, 0, 1]>, fillcolor="#ffffff"] ;
148 -> 149 ;
150 [label=<x<SUB>22</SUB> &le; 0.165<br/>gini = 0.993<br/>samples = 148<br/>value = [1, 1, 1 ... 1, 0, 1]>, fillcolor="#fefffe"] ;
149 -> 150 ;
151 [label=<x<SUB>1</SUB> &le; 1.5<br/>gini = 0.991<br/>samples = 112<br/>value = [1, 1, 1 ... 1, 0, 1]>, fillcolor="#ffffff"] ;
150 -> 151 ;
152 [label=<x<SUB>4</SUB> &le; 1.5<br/>gini = 0.982<br/>samples = 57<br/>value = [1, 1, 1 ... 1, 0, 0]>, fillcolor="#ffffff"] ;
151 -> 152 ;
153 [label=<x<SUB>5</SUB> &le; 1.5<br/>gini = 0.667<br/>samples = 3<br/>value = [0, 0, 0 ... 0, 0, 0]>, fillcolor="#ffffff"] ;
152 -> 153 ;
154 [label=<gini = 0.0<br/>samples = 1<br/>value = [0, 0, 0 ... 0, 0, 0]>, fillcolor="#e539ba"] ;
153 -> 154 ;
155 [label=<x<SUB>29</SUB> &le; -0.206<br/>gini = 0.5<br/>samples = 2<br/>value = [0, 0, 0 ... 0, 0, 0]>, fillcolor="#ffffff"] ;
153 -> 155 ;
156 [label=<gini = 0.0<br/>samples = 1<br/>value = [0, 0, 0 ... 0, 0, 0]>, fillcolor="#e59839"] ;
155 -> 156 ;
157 [label=<gini = 0.0<br/>samples = 1<br/>value = [0, 0, 0 ... 0, 0, 0]>, fillcolor="#e5da39"] ;
155 -> 157 ;
158 [label=<x<SUB>13</SUB> &le; -1.225<br/>gini = 0.981<br/>samples = 54<br/>value = [1, 1, 1 ... 1, 0, 0]>, fillcolor="#ffffff"] ;
152 -> 158 ;
159 [label=<x<SUB>5</SUB> &le; 2.5<br/>gini = 0.833<br/>samples = 6<br/>value = [0, 0, 0 ... 0, 0, 0]>, fillcolor="#ffffff"] ;
158 -> 159 ;
160 [label=<x<SUB>3</SUB> &le; 2.0<br/>gini = 0.667<br/>samples = 3<br/>value = [0, 0, 0 ... 0, 0, 0]>, fillcolor="#ffffff"] ;
159 -> 160 ;
161 [label=<x<SUB>4</SUB> &le; 4.5<br/>gini = 0.5<br/>samples = 2<br/>value = [0, 0, 0 ... 0, 0, 0]>, fillcolor="#ffffff"] ;
160 -> 161 ;
162 [label=<gini = 0.0<br/>samples = 1<br/>value = [0, 0, 0 ... 0, 0, 0]>, fillcolor="#3944e5"] ;
161 -> 162 ;
163 [label=<gini = 0.0<br/>samples = 1<br/>value = [0, 0, 0 ... 0, 0, 0]>, fillcolor="#d139e5"] ;
161 -> 163 ;
164 [label=<gini = 0.0<br/>samples = 1<br/>value = [0, 0, 0 ... 0, 0, 0]>, fillcolor="#39e5b7"] ;
160 -> 164 ;
165 [label=<x<SUB>4</SUB> &le; 4.5<br/>gini = 0.667<br/>samples = 3<br/>value = [0, 0, 0 ... 0, 0, 0]>, fillcolor="#ffffff"] ;
159 -> 165 ;
166 [label=<gini = 0.0<br/>samples = 1<br/>value = [0, 0, 0 ... 0, 0, 0]>, fillcolor="#e56d39"] ;
165 -> 166 ;
167 [label=<x<SUB>3</SUB> &le; 3.0<br/>gini = 0.5<br/>samples = 2<br/>value = [0, 0, 0 ... 0, 0, 0]>, fillcolor="#ffffff"] ;
165 -> 167 ;
168 [label=<gini = 0.0<br/>samples = 1<br/>value = [0, 0, 0 ... 0, 0, 0]>, fillcolor="#39dfe5"] ;
167 -> 168 ;
169 [label=<gini = 0.0<br/>samples = 1<br/>value = [0, 0, 0 ... 0, 0, 0]>, fillcolor="#39c8e5"] ;
167 -> 169 ;
170 [label=<x<SUB>33</SUB> &le; -1.159<br/>gini = 0.979<br/>samples = 48<br/>value = [1, 1, 1 ... 1, 0, 0]>, fillcolor="#ffffff"] ;
158 -> 170 ;
171 [label=<x<SUB>5</SUB> &le; 1.5<br/>gini = 0.857<br/>samples = 7<br/>value = [0, 0, 1 ... 1, 0, 0]>, fillcolor="#ffffff"] ;
170 -> 171 ;
172 [label=<gini = 0.0<br/>samples = 1<br/>value = [0, 0, 0 ... 1, 0, 0]>, fillcolor="#e57e39"] ;
171 -> 172 ;
173 [label=<x<SUB>5</SUB> &le; 2.5<br/>gini = 0.833<br/>samples = 6<br/>value = [0, 0, 1 ... 0, 0, 0]>, fillcolor="#ffffff"] ;
171 -> 173 ;
174 [label=<x<SUB>4</SUB> &le; 3.5<br/>gini = 0.5<br/>samples = 2<br/>value = [0, 0, 1 ... 0, 0, 0]>, fillcolor="#ffffff"] ;
173 -> 174 ;
175 [label=<gini = 0.0<br/>samples = 1<br/>value = [0, 0, 1 ... 0, 0, 0]>, fillcolor="#e58139"] ;
174 -> 175 ;
176 [label=<gini = 0.0<br/>samples = 1<br/>value = [0, 0, 0 ... 0, 0, 0]>, fillcolor="#e55339"] ;
174 -> 176 ;
177 [label=<x<SUB>4</SUB> &le; 3.5<br/>gini = 0.75<br/>samples = 4<br/>value = [0, 0, 0 ... 0, 0, 0]>, fillcolor="#ffffff"] ;
173 -> 177 ;
178 [label=<x<SUB>2</SUB> &le; 1.5<br/>gini = 0.667<br/>samples = 3<br/>value = [0, 0, 0 ... 0, 0, 0]>, fillcolor="#ffffff"] ;
177 -> 178 ;
179 [label=<x<SUB>3</SUB> &le; 3.0<br/>gini = 0.5<br/>samples = 2<br/>value = [0, 0, 0 ... 0, 0, 0]>, fillcolor="#ffffff"] ;
178 -> 179 ;
180 [label=<gini = 0.0<br/>samples = 1<br/>value = [0, 0, 0 ... 0, 0, 0]>, fillcolor="#39e57b"] ;
179 -> 180 ;
181 [label=<gini = 0.0<br/>samples = 1<br/>value = [0, 0, 0 ... 0, 0, 0]>, fillcolor="#e5398f"] ;
179 -> 181 ;
182 [label=<gini = 0.0<br/>samples = 1<br/>value = [0, 0, 0 ... 0, 0, 0]>, fillcolor="#e55839"] ;
178 -> 182 ;
183 [label=<gini = 0.0<br/>samples = 1<br/>value = [0, 0, 0 ... 0, 0, 0]>, fillcolor="#e55339"] ;
177 -> 183 ;
184 [label=<x<SUB>23</SUB> &le; -0.751<br/>gini = 0.976<br/>samples = 41<br/>value = [1, 1, 0 ... 0, 0, 0]>, fillcolor="#ffffff"] ;
170 -> 184 ;
185 [label=<gini = 0.0<br/>samples = 1<br/>value = [0, 0, 0 ... 0, 0, 0]>, fillcolor="#39d7e5"] ;
184 -> 185 ;
186 [label=<x<SUB>4</SUB> &le; 2.5<br/>gini = 0.975<br/>samples = 40<br/>value = [1, 1, 0 ... 0, 0, 0]>, fillcolor="#ffffff"] ;
184 -> 186 ;
187 [label=<x<SUB>13</SUB> &le; -1.048<br/>gini = 0.9<br/>samples = 10<br/>value = [0, 1, 0 ... 0, 0, 0]>, fillcolor="#ffffff"] ;
186 -> 187 ;
188 [label=<gini = 0.0<br/>samples = 1<br/>value = [0, 0, 0 ... 0, 0, 0]>, fillcolor="#aee539"] ;
187 -> 188 ;
189 [label=<x<SUB>9</SUB> &le; -0.576<br/>gini = 0.889<br/>samples = 9<br/>value = [0, 1, 0 ... 0, 0, 0]>, fillcolor="#ffffff"] ;
187 -> 189 ;
190 [label=<x<SUB>5</SUB> &le; 2.5<br/>gini = 0.667<br/>samples = 3<br/>value = [0, 0, 0 ... 0, 0, 0]>, fillcolor="#ffffff"] ;
189 -> 190 ;
191 [label=<gini = 0.0<br/>samples = 1<br/>value = [0, 0, 0 ... 0, 0, 0]>, fillcolor="#e59a39"] ;
190 -> 191 ;
192 [label=<x<SUB>3</SUB> &le; 1.5<br/>gini = 0.5<br/>samples = 2<br/>value = [0, 0, 0 ... 0, 0, 0]>, fillcolor="#ffffff"] ;
190 -> 192 ;
193 [label=<gini = 0.0<br/>samples = 1<br/>value = [0, 0, 0 ... 0, 0, 0]>, fillcolor="#c3e539"] ;
192 -> 193 ;
194 [label=<gini = 0.0<br/>samples = 1<br/>value = [0, 0, 0 ... 0, 0, 0]>, fillcolor="#e5ba39"] ;
192 -> 194 ;
195 [label=<x<SUB>23</SUB> &le; -0.334<br/>gini = 0.833<br/>samples = 6<br/>value = [0, 1, 0 ... 0, 0, 0]>, fillcolor="#ffffff"] ;
189 -> 195 ;
196 [label=<x<SUB>5</SUB> &le; 2.0<br/>gini = 0.5<br/>samples = 2<br/>value = [0, 0, 0 ... 0, 0, 0]>, fillcolor="#ffffff"] ;
195 -> 196 ;
197 [label=<gini = 0.0<br/>samples = 1<br/>value = [0, 0, 0 ... 0, 0, 0]>, fillcolor="#e58139"] ;
196 -> 197 ;
198 [label=<gini = 0.0<br/>samples = 1<br/>value = [0, 0, 0 ... 0, 0, 0]>, fillcolor="#3975e5"] ;
196 -> 198 ;
199 [label=<x<SUB>2</SUB> &le; 1.5<br/>gini = 0.75<br/>samples = 4<br/>value = [0, 1, 0 ... 0, 0, 0]>, fillcolor="#ffffff"] ;
195 -> 199 ;
200 [label=<x<SUB>25</SUB> &le; -0.188<br/>gini = 0.5<br/>samples = 2<br/>value = [0, 0, 0 ... 0, 0, 0]>, fillcolor="#ffffff"] ;
199 -> 200 ;
201 [label=<gini = 0.0<br/>samples = 1<br/>value = [0, 0, 0 ... 0, 0, 0]>, fillcolor="#e5396f"] ;
200 -> 201 ;
202 [label=<gini = 0.0<br/>samples = 1<br/>value = [0, 0, 0 ... 0, 0, 0]>, fillcolor="#e53995"] ;
200 -> 202 ;
203 [label=<x<SUB>32</SUB> &le; -0.495<br/>gini = 0.5<br/>samples = 2<br/>value = [0, 1, 0 ... 0, 0, 0]>, fillcolor="#ffffff"] ;
199 -> 203 ;
204 [label=<gini = 0.0<br/>samples = 1<br/>value = [0, 0, 0 ... 0, 0, 0]>, fillcolor="#e5b739"] ;
203 -> 204 ;
205 [label=<gini = 0.0<br/>samples = 1<br/>value = [0, 1, 0 ... 0, 0, 0]>, fillcolor="#e58139"] ;
203 -> 205 ;
206 [label=<x<SUB>3</SUB> &le; 1.5<br/>gini = 0.967<br/>samples = 30<br/>value = [1, 0, 0 ... 0, 0, 0]>, fillcolor="#ffffff"] ;
186 -> 206 ;
207 [label=<x<SUB>9</SUB> &le; -0.677<br/>gini = 0.917<br/>samples = 12<br/>value = [1, 0, 0 ... 0, 0, 0]>, fillcolor="#ffffff"] ;
206 -> 207 ;
208 [label=<x<SUB>4</SUB> &le; 3.5<br/>gini = 0.5<br/>samples = 2<br/>value = [0, 0, 0 ... 0, 0, 0]>, fillcolor="#ffffff"] ;
207 -> 208 ;
209 [label=<gini = 0.0<br/>samples = 1<br/>value = [0, 0, 0 ... 0, 0, 0]>, fillcolor="#e5a639"] ;
208 -> 209 ;
210 [label=<gini = 0.0<br/>samples = 1<br/>value = [0, 0, 0 ... 0, 0, 0]>, fillcolor="#e5e239"] ;
208 -> 210 ;
211 [label=<x<SUB>9</SUB> &le; -0.515<br/>gini = 0.9<br/>samples = 10<br/>value = [1, 0, 0 ... 0, 0, 0]>, fillcolor="#ffffff"] ;
207 -> 211 ;
212 [label=<x<SUB>2</SUB> &le; 1.5<br/>gini = 0.5<br/>samples = 2<br/>value = [0, 0, 0 ... 0, 0, 0]>, fillcolor="#ffffff"] ;
211 -> 212 ;
213 [label=<gini = 0.0<br/>samples = 1<br/>value = [0, 0, 0 ... 0, 0, 0]>, fillcolor="#61e539"] ;
212 -> 213 ;
214 [label=<gini = 0.0<br/>samples = 1<br/>value = [0, 0, 0 ... 0, 0, 0]>, fillcolor="#3964e5"] ;
212 -> 214 ;
215 [label=<x<SUB>20</SUB> &le; -1.078<br/>gini = 0.875<br/>samples = 8<br/>value = [1, 0, 0 ... 0, 0, 0]>, fillcolor="#ffffff"] ;
211 -> 215 ;
216 [label=<gini = 0.0<br/>samples = 1<br/>value = [1, 0, 0 ... 0, 0, 0]>, fillcolor="#e58139"] ;
215 -> 216 ;
217 [label=<x<SUB>26</SUB> &le; -0.999<br/>gini = 0.857<br/>samples = 7<br/>value = [0, 0, 0 ... 0, 0, 0]>, fillcolor="#ffffff"] ;
215 -> 217 ;
218 [label=<gini = 0.0<br/>samples = 1<br/>value = [0, 0, 0 ... 0, 0, 0]>, fillcolor="#6739e5"] ;
217 -> 218 ;
219 [label=<x<SUB>28</SUB> &le; -0.377<br/>gini = 0.833<br/>samples = 6<br/>value = [0, 0, 0 ... 0, 0, 0]>, fillcolor="#ffffff"] ;
217 -> 219 ;
220 [label=<gini = 0.0<br/>samples = 1<br/>value = [0, 0, 0 ... 0, 0, 0]>, fillcolor="#e58939"] ;
219 -> 220 ;
221 [label=<x<SUB>33</SUB> &le; -0.604<br/>gini = 0.8<br/>samples = 5<br/>value = [0, 0, 0 ... 0, 0, 0]>, fillcolor="#ffffff"] ;
219 -> 221 ;
222 [label=<x<SUB>2</SUB> &le; 1.5<br/>gini = 0.667<br/>samples = 3<br/>value = [0, 0, 0 ... 0, 0, 0]>, fillcolor="#ffffff"] ;
221 -> 222 ;
223 [label=<x<SUB>4</SUB> &le; 4.5<br/>gini = 0.5<br/>samples = 2<br/>value = [0, 0, 0 ... 0, 0, 0]>, fillcolor="#ffffff"] ;
222 -> 223 ;
224 [label=<gini = 0.0<br/>samples = 1<br/>value = [0, 0, 0 ... 0, 0, 0]>, fillcolor="#e539df"] ;
223 -> 224 ;
225 [label=<gini = 0.0<br/>samples = 1<br/>value = [0, 0, 0 ... 0, 0, 0]>, fillcolor="#a339e5"] ;
223 -> 225 ;
226 [label=<gini = 0.0<br/>samples = 1<br/>value = [0, 0, 0 ... 0, 0, 0]>, fillcolor="#50e539"] ;
222 -> 226 ;
227 [label=<x<SUB>5</SUB> &le; 1.5<br/>gini = 0.5<br/>samples = 2<br/>value = [0, 0, 0 ... 0, 0, 0]>, fillcolor="#ffffff"] ;
221 -> 227 ;
228 [label=<gini = 0.0<br/>samples = 1<br/>value = [0, 0, 0 ... 0, 0, 0]>, fillcolor="#e57239"] ;
227 -> 228 ;
229 [label=<gini = 0.0<br/>samples = 1<br/>value = [0, 0, 0 ... 0, 0, 0]>, fillcolor="#e59d39"] ;
227 -> 229 ;
230 [label=<x<SUB>15</SUB> &le; -0.913<br/>gini = 0.944<br/>samples = 18<br/>value = [0, 0, 0 ... 0, 0, 0]>, fillcolor="#ffffff"] ;
206 -> 230 ;
231 [label=<gini = 0.0<br/>samples = 1<br/>value = [0, 0, 0 ... 0, 0, 0]>, fillcolor="#39aee5"] ;
230 -> 231 ;
232 [label=<x<SUB>17</SUB> &le; -1.299<br/>gini = 0.941<br/>samples = 17<br/>value = [0, 0, 0 ... 0, 0, 0]>, fillcolor="#ffffff"] ;
230 -> 232 ;
233 [label=<x<SUB>5</SUB> &le; 2.5<br/>gini = 0.75<br/>samples = 4<br/>value = [0, 0, 0 ... 0, 0, 0]>, fillcolor="#ffffff"] ;
232 -> 233 ;
234 [label=<x<SUB>2</SUB> &le; 1.5<br/>gini = 0.5<br/>samples = 2<br/>value = [0, 0, 0 ... 0, 0, 0]>, fillcolor="#ffffff"] ;
233 -> 234 ;
235 [label=<gini = 0.0<br/>samples = 1<br/>value = [0, 0, 0 ... 0, 0, 0]>, fillcolor="#39d4e5"] ;
234 -> 235 ;
236 [label=<gini = 0.0<br/>samples = 1<br/>value = [0, 0, 0 ... 0, 0, 0]>, fillcolor="#e57e39"] ;
234 -> 236 ;
237 [label=<x<SUB>3</SUB> &le; 2.5<br/>gini = 0.5<br/>samples = 2<br/>value = [0, 0, 0 ... 0, 0, 0]>, fillcolor="#ffffff"] ;
233 -> 237 ;
238 [label=<gini = 0.0<br/>samples = 1<br/>value = [0, 0, 0 ... 0, 0, 0]>, fillcolor="#a039e5"] ;
237 -> 238 ;
239 [label=<gini = 0.0<br/>samples = 1<br/>value = [0, 0, 0 ... 0, 0, 0]>, fillcolor="#39e547"] ;
237 -> 239 ;
240 [label=<x<SUB>4</SUB> &le; 3.5<br/>gini = 0.923<br/>samples = 13<br/>value = [0, 0, 0 ... 0, 0, 0]>, fillcolor="#ffffff"] ;
232 -> 240 ;
241 [label=<x<SUB>22</SUB> &le; -1.065<br/>gini = 0.667<br/>samples = 3<br/>value = [0, 0, 0 ... 0, 0, 0]>, fillcolor="#ffffff"] ;
240 -> 241 ;
242 [label=<gini = 0.0<br/>samples = 1<br/>value = [0, 0, 0 ... 0, 0, 0]>, fillcolor="#e58639"] ;
241 -> 242 ;
243 [label=<x<SUB>2</SUB> &le; 1.5<br/>gini = 0.5<br/>samples = 2<br/>value = [0, 0, 0 ... 0, 0, 0]>, fillcolor="#ffffff"] ;
241 -> 243 ;
244 [label=<gini = 0.0<br/>samples = 1<br/>value = [0, 0, 0 ... 0, 0, 0]>, fillcolor="#e53998"] ;
243 -> 244 ;
245 [label=<gini = 0.0<br/>samples = 1<br/>value = [0, 0, 0 ... 0, 0, 0]>, fillcolor="#a9e539"] ;
243 -> 245 ;
246 [label=<x<SUB>0</SUB> &le; 2.5<br/>gini = 0.9<br/>samples = 10<br/>value = [0, 0, 0 ... 0, 0, 0]>, fillcolor="#ffffff"] ;
240 -> 246 ;
247 [label=<gini = 0.0<br/>samples = 1<br/>value = [0, 0, 0 ... 0, 0, 0]>, fillcolor="#e58f39"] ;
246 -> 247 ;
248 [label=<x<SUB>24</SUB> &le; -1.088<br/>gini = 0.889<br/>samples = 9<br/>value = [0, 0, 0 ... 0, 0, 0]>, fillcolor="#ffffff"] ;
246 -> 248 ;
249 [label=<gini = 0.0<br/>samples = 1<br/>value = [0, 0, 0 ... 0, 0, 0]>, fillcolor="#e5c039"] ;
248 -> 249 ;
250 [label=<x<SUB>12</SUB> &le; -0.671<br/>gini = 0.875<br/>samples = 8<br/>value = [0, 0, 0 ... 0, 0, 0]>, fillcolor="#ffffff"] ;
248 -> 250 ;
251 [label=<gini = 0.0<br/>samples = 1<br/>value = [0, 0, 0 ... 0, 0, 0]>, fillcolor="#e54d39"] ;
250 -> 251 ;
252 [label=<x<SUB>4</SUB> &le; 4.5<br/>gini = 0.857<br/>samples = 7<br/>value = [0, 0, 0 ... 0, 0, 0]>, fillcolor="#ffffff"] ;
250 -> 252 ;
253 [label=<gini = 0.0<br/>samples = 1<br/>value = [0, 0, 0 ... 0, 0, 0]>, fillcolor="#e57b39"] ;
252 -> 253 ;
254 [label=<x<SUB>6</SUB> &le; 5.5<br/>gini = 0.833<br/>samples = 6<br/>value = [0, 0, 0 ... 0, 0, 0]>, fillcolor="#ffffff"] ;
252 -> 254 ;
255 [label=<x<SUB>2</SUB> &le; 1.5<br/>gini = 0.5<br/>samples = 2<br/>value = [0, 0, 0 ... 0, 0, 0]>, fillcolor="#ffffff"] ;
254 -> 255 ;
256 [label=<gini = 0.0<br/>samples = 1<br/>value = [0, 0, 0 ... 0, 0, 0]>, fillcolor="#e54d39"] ;
255 -> 256 ;
257 [label=<gini = 0.0<br/>samples = 1<br/>value = [0, 0, 0 ... 0, 0, 0]>, fillcolor="#39e55b"] ;
255 -> 257 ;
258 [label=<x<SUB>11</SUB> &le; -0.611<br/>gini = 0.75<br/>samples = 4<br/>value = [0, 0, 0 ... 0, 0, 0]>, fillcolor="#ffffff"] ;
254 -> 258 ;
259 [label=<gini = 0.0<br/>samples = 1<br/>value = [0, 0, 0 ... 0, 0, 0]>, fillcolor="#e55e39"] ;
258 -> 259 ;
260 [label=<x<SUB>21</SUB> &le; -0.795<br/>gini = 0.667<br/>samples = 3<br/>value = [0, 0, 0 ... 0, 0, 0]>, fillcolor="#ffffff"] ;
258 -> 260 ;
261 [label=<x<SUB>3</SUB> &le; 3.5<br/>gini = 0.5<br/>samples = 2<br/>value = [0, 0, 0 ... 0, 0, 0]>, fillcolor="#ffffff"] ;
260 -> 261 ;
262 [label=<gini = 0.0<br/>samples = 1<br/>value = [0, 0, 0 ... 0, 0, 0]>, fillcolor="#9839e5"] ;
261 -> 262 ;
263 [label=<gini = 0.0<br/>samples = 1<br/>value = [0, 0, 0 ... 0, 0, 0]>, fillcolor="#e57839"] ;
261 -> 263 ;
264 [label=<gini = 0.0<br/>samples = 1<br/>value = [0, 0, 0 ... 0, 0, 0]>, fillcolor="#e539c5"] ;
260 -> 264 ;
265 [label=<x<SUB>3</SUB> &le; 1.5<br/>gini = 0.982<br/>samples = 55<br/>value = [0, 0, 0 ... 0, 0, 1]>, fillcolor="#ffffff"] ;
151 -> 265 ;
266 [label=<x<SUB>5</SUB> &le; 1.5<br/>gini = 0.938<br/>samples = 16<br/>value = [0, 0, 0 ... 0, 0, 0]>, fillcolor="#ffffff"] ;
265 -> 266 ;
267 [label=<x<SUB>28</SUB> &le; -0.613<br/>gini = 0.875<br/>samples = 8<br/>value = [0, 0, 0 ... 0, 0, 0]>, fillcolor="#ffffff"] ;
266 -> 267 ;
268 [label=<gini = 0.0<br/>samples = 1<br/>value = [0, 0, 0 ... 0, 0, 0]>, fillcolor="#39e5c5"] ;
267 -> 268 ;
269 [label=<x<SUB>24</SUB> &le; -1.088<br/>gini = 0.857<br/>samples = 7<br/>value = [0, 0, 0 ... 0, 0, 0]>, fillcolor="#ffffff"] ;
267 -> 269 ;
270 [label=<gini = 0.0<br/>samples = 1<br/>value = [0, 0, 0 ... 0, 0, 0]>, fillcolor="#e59d39"] ;
269 -> 270 ;
271 [label=<x<SUB>17</SUB> &le; -0.48<br/>gini = 0.833<br/>samples = 6<br/>value = [0, 0, 0 ... 0, 0, 0]>, fillcolor="#ffffff"] ;
269 -> 271 ;
272 [label=<gini = 0.0<br/>samples = 1<br/>value = [0, 0, 0 ... 0, 0, 0]>, fillcolor="#e58f39"] ;
271 -> 272 ;
273 [label=<x<SUB>6</SUB> &le; 5.0<br/>gini = 0.8<br/>samples = 5<br/>value = [0, 0, 0 ... 0, 0, 0]>, fillcolor="#ffffff"] ;
271 -> 273 ;
274 [label=<gini = 0.0<br/>samples = 1<br/>value = [0, 0, 0 ... 0, 0, 0]>, fillcolor="#e58f39"] ;
273 -> 274 ;
275 [label=<x<SUB>13</SUB> &le; -0.907<br/>gini = 0.75<br/>samples = 4<br/>value = [0, 0, 0 ... 0, 0, 0]>, fillcolor="#ffffff"] ;
273 -> 275 ;
276 [label=<gini = 0.0<br/>samples = 1<br/>value = [0, 0, 0 ... 0, 0, 0]>, fillcolor="#39e5b4"] ;
275 -> 276 ;
277 [label=<x<SUB>19</SUB> &le; 1.675<br/>gini = 0.667<br/>samples = 3<br/>value = [0, 0, 0 ... 0, 0, 0]>, fillcolor="#ffffff"] ;
275 -> 277 ;
278 [label=<x<SUB>2</SUB> &le; 1.5<br/>gini = 0.5<br/>samples = 2<br/>value = [0, 0, 0 ... 0, 0, 0]>, fillcolor="#ffffff"] ;
277 -> 278 ;
279 [label=<gini = 0.0<br/>samples = 1<br/>value = [0, 0, 0 ... 0, 0, 0]>, fillcolor="#4d39e5"] ;
278 -> 279 ;
280 [label=<gini = 0.0<br/>samples = 1<br/>value = [0, 0, 0 ... 0, 0, 0]>, fillcolor="#e58339"] ;
278 -> 280 ;
281 [label=<gini = 0.0<br/>samples = 1<br/>value = [0, 0, 0 ... 0, 0, 0]>, fillcolor="#e5397b"] ;
277 -> 281 ;
282 [label=<x<SUB>32</SUB> &le; -1.784<br/>gini = 0.875<br/>samples = 8<br/>value = [0, 0, 0 ... 0, 0, 0]>, fillcolor="#ffffff"] ;
266 -> 282 ;
283 [label=<gini = 0.0<br/>samples = 1<br/>value = [0, 0, 0 ... 0, 0, 0]>, fillcolor="#39a6e5"] ;
282 -> 283 ;
284 [label=<x<SUB>23</SUB> &le; -0.751<br/>gini = 0.857<br/>samples = 7<br/>value = [0, 0, 0 ... 0, 0, 0]>, fillcolor="#ffffff"] ;
282 -> 284 ;
285 [label=<gini = 0.0<br/>samples = 1<br/>value = [0, 0, 0 ... 0, 0, 0]>, fillcolor="#39e575"] ;
284 -> 285 ;
286 [label=<x<SUB>19</SUB> &le; -0.424<br/>gini = 0.833<br/>samples = 6<br/>value = [0, 0, 0 ... 0, 0, 0]>, fillcolor="#ffffff"] ;
284 -> 286 ;
287 [label=<gini = 0.0<br/>samples = 1<br/>value = [0, 0, 0 ... 0, 0, 0]>, fillcolor="#e539d4"] ;
286 -> 287 ;
288 [label=<x<SUB>28</SUB> &le; -0.476<br/>gini = 0.8<br/>samples = 5<br/>value = [0, 0, 0 ... 0, 0, 0]>, fillcolor="#ffffff"] ;
286 -> 288 ;
289 [label=<gini = 0.0<br/>samples = 1<br/>value = [0, 0, 0 ... 0, 0, 0]>, fillcolor="#e5d439"] ;
288 -> 289 ;
290 [label=<x<SUB>25</SUB> &le; -0.295<br/>gini = 0.75<br/>samples = 4<br/>value = [0, 0, 0 ... 0, 0, 0]>, fillcolor="#ffffff"] ;
288 -> 290 ;
291 [label=<gini = 0.0<br/>samples = 1<br/>value = [0, 0, 0 ... 0, 0, 0]>, fillcolor="#e5d139"] ;
290 -> 291 ;
292 [label=<x<SUB>33</SUB> &le; -1.033<br/>gini = 0.667<br/>samples = 3<br/>value = [0, 0, 0 ... 0, 0, 0]>, fillcolor="#ffffff"] ;
290 -> 292 ;
293 [label=<gini = 0.0<br/>samples = 1<br/>value = [0, 0, 0 ... 0, 0, 0]>, fillcolor="#39e5cb"] ;
292 -> 293 ;
294 [label=<x<SUB>16</SUB> &le; -0.395<br/>gini = 0.5<br/>samples = 2<br/>value = [0, 0, 0 ... 0, 0, 0]>, fillcolor="#ffffff"] ;
292 -> 294 ;
295 [label=<gini = 0.0<br/>samples = 1<br/>value = [0, 0, 0 ... 0, 0, 0]>, fillcolor="#e59539"] ;
294 -> 295 ;
296 [label=<gini = 0.0<br/>samples = 1<br/>value = [0, 0, 0 ... 0, 0, 0]>, fillcolor="#39b1e5"] ;
294 -> 296 ;
297 [label=<x<SUB>8</SUB> &le; -0.992<br/>gini = 0.974<br/>samples = 39<br/>value = [0, 0, 0 ... 0, 0, 1]>, fillcolor="#ffffff"] ;
265 -> 297 ;
298 [label=<x<SUB>2</SUB> &le; 1.5<br/>gini = 0.857<br/>samples = 7<br/>value = [0, 0, 0 ... 0, 0, 0]>, fillcolor="#ffffff"] ;
297 -> 298 ;
299 [label=<x<SUB>4</SUB> &le; 3.5<br/>gini = 0.5<br/>samples = 2<br/>value = [0, 0, 0 ... 0, 0, 0]>, fillcolor="#ffffff"] ;
298 -> 299 ;
300 [label=<gini = 0.0<br/>samples = 1<br/>value = [0, 0, 0 ... 0, 0, 0]>, fillcolor="#e53992"] ;
299 -> 300 ;
301 [label=<gini = 0.0<br/>samples = 1<br/>value = [0, 0, 0 ... 0, 0, 0]>, fillcolor="#3958e5"] ;
299 -> 301 ;
302 [label=<x<SUB>5</SUB> &le; 2.0<br/>gini = 0.8<br/>samples = 5<br/>value = [0, 0, 0 ... 0, 0, 0]>, fillcolor="#ffffff"] ;
298 -> 302 ;
303 [label=<x<SUB>4</SUB> &le; 3.5<br/>gini = 0.75<br/>samples = 4<br/>value = [0, 0, 0 ... 0, 0, 0]>, fillcolor="#ffffff"] ;
302 -> 303 ;
304 [label=<gini = 0.0<br/>samples = 1<br/>value = [0, 0, 0 ... 0, 0, 0]>, fillcolor="#e57239"] ;
303 -> 304 ;
305 [label=<x<SUB>4</SUB> &le; 4.5<br/>gini = 0.667<br/>samples = 3<br/>value = [0, 0, 0 ... 0, 0, 0]>, fillcolor="#ffffff"] ;
303 -> 305 ;
306 [label=<gini = 0.0<br/>samples = 1<br/>value = [0, 0, 0 ... 0, 0, 0]>, fillcolor="#e53939"] ;
305 -> 306 ;
307 [label=<x<SUB>3</SUB> &le; 3.5<br/>gini = 0.5<br/>samples = 2<br/>value = [0, 0, 0 ... 0, 0, 0]>, fillcolor="#ffffff"] ;
305 -> 307 ;
308 [label=<gini = 0.0<br/>samples = 1<br/>value = [0, 0, 0 ... 0, 0, 0]>, fillcolor="#e539e5"] ;
307 -> 308 ;
309 [label=<gini = 0.0<br/>samples = 1<br/>value = [0, 0, 0 ... 0, 0, 0]>, fillcolor="#e53956"] ;
307 -> 309 ;
310 [label=<gini = 0.0<br/>samples = 1<br/>value = [0, 0, 0 ... 0, 0, 0]>, fillcolor="#39d4e5"] ;
302 -> 310 ;
311 [label=<x<SUB>30</SUB> &le; -0.708<br/>gini = 0.969<br/>samples = 32<br/>value = [0, 0, 0 ... 0, 0, 1]>, fillcolor="#ffffff"] ;
297 -> 311 ;
312 [label=<gini = 0.0<br/>samples = 1<br/>value = [0, 0, 0 ... 0, 0, 0]>, fillcolor="#e539da"] ;
311 -> 312 ;
313 [label=<x<SUB>18</SUB> &le; -1.326<br/>gini = 0.968<br/>samples = 31<br/>value = [0, 0, 0 ... 0, 0, 1]>, fillcolor="#ffffff"] ;
311 -> 313 ;
314 [label=<x<SUB>3</SUB> &le; 2.5<br/>gini = 0.833<br/>samples = 6<br/>value = [0, 0, 0 ... 0, 0, 0]>, fillcolor="#ffffff"] ;
313 -> 314 ;
315 [label=<gini = 0.0<br/>samples = 1<br/>value = [0, 0, 0 ... 0, 0, 0]>, fillcolor="#cbe539"] ;
314 -> 315 ;
316 [label=<x<SUB>4</SUB> &le; 1.5<br/>gini = 0.8<br/>samples = 5<br/>value = [0, 0, 0 ... 0, 0, 0]>, fillcolor="#ffffff"] ;
314 -> 316 ;
317 [label=<x<SUB>2</SUB> &le; 1.5<br/>gini = 0.5<br/>samples = 2<br/>value = [0, 0, 0 ... 0, 0, 0]>, fillcolor="#ffffff"] ;
316 -> 317 ;
318 [label=<gini = 0.0<br/>samples = 1<br/>value = [0, 0, 0 ... 0, 0, 0]>, fillcolor="#e53947"] ;
317 -> 318 ;
319 [label=<gini = 0.0<br/>samples = 1<br/>value = [0, 0, 0 ... 0, 0, 0]>, fillcolor="#e5a339"] ;
317 -> 319 ;
320 [label=<x<SUB>4</SUB> &le; 2.5<br/>gini = 0.667<br/>samples = 3<br/>value = [0, 0, 0 ... 0, 0, 0]>, fillcolor="#ffffff"] ;
316 -> 320 ;
321 [label=<gini = 0.0<br/>samples = 1<br/>value = [0, 0, 0 ... 0, 0, 0]>, fillcolor="#e58939"] ;
320 -> 321 ;
322 [label=<x<SUB>2</SUB> &le; 1.5<br/>gini = 0.5<br/>samples = 2<br/>value = [0, 0, 0 ... 0, 0, 0]>, fillcolor="#ffffff"] ;
320 -> 322 ;
323 [label=<gini = 0.0<br/>samples = 1<br/>value = [0, 0, 0 ... 0, 0, 0]>, fillcolor="#e55b39"] ;
322 -> 323 ;
324 [label=<gini = 0.0<br/>samples = 1<br/>value = [0, 0, 0 ... 0, 0, 0]>, fillcolor="#39aee5"] ;
322 -> 324 ;
325 [label=<x<SUB>31</SUB> &le; -0.945<br/>gini = 0.96<br/>samples = 25<br/>value = [0, 0, 0 ... 0, 0, 1]>, fillcolor="#ffffff"] ;
313 -> 325 ;
326 [label=<x<SUB>5</SUB> &le; 2.0<br/>gini = 0.5<br/>samples = 2<br/>value = [0, 0, 0 ... 0, 0, 0]>, fillcolor="#ffffff"] ;
325 -> 326 ;
327 [label=<gini = 0.0<br/>samples = 1<br/>value = [0, 0, 0 ... 0, 0, 0]>, fillcolor="#397ee5"] ;
326 -> 327 ;
328 [label=<gini = 0.0<br/>samples = 1<br/>value = [0, 0, 0 ... 0, 0, 0]>, fillcolor="#3944e5"] ;
326 -> 328 ;
329 [label=<x<SUB>25</SUB> &le; -0.646<br/>gini = 0.957<br/>samples = 23<br/>value = [0, 0, 0 ... 0, 0, 1]>, fillcolor="#ffffff"] ;
325 -> 329 ;
330 [label=<x<SUB>5</SUB> &le; 2.0<br/>gini = 0.5<br/>samples = 2<br/>value = [0, 0, 0 ... 0, 0, 0]>, fillcolor="#ffffff"] ;
329 -> 330 ;
331 [label=<gini = 0.0<br/>samples = 1<br/>value = [0, 0, 0 ... 0, 0, 0]>, fillcolor="#e5b439"] ;
330 -> 331 ;
332 [label=<gini = 0.0<br/>samples = 1<br/>value = [0, 0, 0 ... 0, 0, 0]>, fillcolor="#e5d139"] ;
330 -> 332 ;
333 [label=<x<SUB>31</SUB> &le; -0.874<br/>gini = 0.952<br/>samples = 21<br/>value = [0, 0, 0 ... 0, 0, 1]>, fillcolor="#ffffff"] ;
329 -> 333 ;
334 [label=<x<SUB>4</SUB> &le; 3.0<br/>gini = 0.75<br/>samples = 4<br/>value = [0, 0, 0 ... 0, 0, 0]>, fillcolor="#ffffff"] ;
333 -> 334 ;
335 [label=<gini = 0.0<br/>samples = 1<br/>value = [0, 0, 0 ... 0, 0, 0]>, fillcolor="#58e539"] ;
334 -> 335 ;
336 [label=<x<SUB>2</SUB> &le; 1.5<br/>gini = 0.667<br/>samples = 3<br/>value = [0, 0, 0 ... 0, 0, 0]>, fillcolor="#ffffff"] ;
334 -> 336 ;
337 [label=<x<SUB>3</SUB> &le; 3.5<br/>gini = 0.5<br/>samples = 2<br/>value = [0, 0, 0 ... 0, 0, 0]>, fillcolor="#ffffff"] ;
336 -> 337 ;
338 [label=<gini = 0.0<br/>samples = 1<br/>value = [0, 0, 0 ... 0, 0, 0]>, fillcolor="#e53964"] ;
337 -> 338 ;
339 [label=<gini = 0.0<br/>samples = 1<br/>value = [0, 0, 0 ... 0, 0, 0]>, fillcolor="#e5393f"] ;
337 -> 339 ;
340 [label=<gini = 0.0<br/>samples = 1<br/>value = [0, 0, 0 ... 0, 0, 0]>, fillcolor="#e5d739"] ;
336 -> 340 ;
341 [label=<x<SUB>13</SUB> &le; -0.969<br/>gini = 0.941<br/>samples = 17<br/>value = [0, 0, 0 ... 0, 0, 1]>, fillcolor="#ffffff"] ;
333 -> 341 ;
342 [label=<x<SUB>2</SUB> &le; 1.5<br/>gini = 0.833<br/>samples = 6<br/>value = [0, 0, 0 ... 0, 0, 1]>, fillcolor="#ffffff"] ;
341 -> 342 ;
343 [label=<x<SUB>3</SUB> &le; 2.5<br/>gini = 0.5<br/>samples = 2<br/>value = [0, 0, 0 ... 0, 0, 0]>, fillcolor="#ffffff"] ;
342 -> 343 ;
344 [label=<gini = 0.0<br/>samples = 1<br/>value = [0, 0, 0 ... 0, 0, 0]>, fillcolor="#4d39e5"] ;
343 -> 344 ;
345 [label=<gini = 0.0<br/>samples = 1<br/>value = [0, 0, 0 ... 0, 0, 0]>, fillcolor="#81e539"] ;
343 -> 345 ;
346 [label=<x<SUB>4</SUB> &le; 3.0<br/>gini = 0.75<br/>samples = 4<br/>value = [0, 0, 0 ... 0, 0, 1]>, fillcolor="#ffffff"] ;
342 -> 346 ;
347 [label=<x<SUB>3</SUB> &le; 50.5<br/>gini = 0.5<br/>samples = 2<br/>value = [0, 0, 0 ... 0, 0, 0]>, fillcolor="#ffffff"] ;
346 -> 347 ;
348 [label=<gini = 0.0<br/>samples = 1<br/>value = [0, 0, 0 ... 0, 0, 0]>, fillcolor="#83e539"] ;
347 -> 348 ;
349 [label=<gini = 0.0<br/>samples = 1<br/>value = [0, 0, 0 ... 0, 0, 0]>, fillcolor="#dce539"] ;
347 -> 349 ;
350 [label=<x<SUB>3</SUB> &le; 3.0<br/>gini = 0.5<br/>samples = 2<br/>value = [0, 0, 0 ... 0, 0, 1]>, fillcolor="#ffffff"] ;
346 -> 350 ;
351 [label=<gini = 0.0<br/>samples = 1<br/>value = [0, 0, 0 ... 0, 0, 0]>, fillcolor="#6fe539"] ;
350 -> 351 ;
352 [label=<gini = 0.0<br/>samples = 1<br/>value = [0, 0, 0 ... 0, 0, 1]>, fillcolor="#e57e39"] ;
350 -> 352 ;
353 [label=<x<SUB>26</SUB> &le; -0.463<br/>gini = 0.909<br/>samples = 11<br/>value = [0, 0, 0 ... 0, 0, 0]>, fillcolor="#ffffff"] ;
341 -> 353 ;
354 [label=<x<SUB>5</SUB> &le; 2.5<br/>gini = 0.667<br/>samples = 3<br/>value = [0, 0, 0 ... 0, 0, 0]>, fillcolor="#ffffff"] ;
353 -> 354 ;
355 [label=<gini = 0.0<br/>samples = 1<br/>value = [0, 0, 0 ... 0, 0, 0]>, fillcolor="#e59a39"] ;
354 -> 355 ;
356 [label=<x<SUB>4</SUB> &le; 2.5<br/>gini = 0.5<br/>samples = 2<br/>value = [0, 0, 0 ... 0, 0, 0]>, fillcolor="#ffffff"] ;
354 -> 356 ;
357 [label=<gini = 0.0<br/>samples = 1<br/>value = [0, 0, 0 ... 0, 0, 0]>, fillcolor="#395ee5"] ;
356 -> 357 ;
358 [label=<gini = 0.0<br/>samples = 1<br/>value = [0, 0, 0 ... 0, 0, 0]>, fillcolor="#3992e5"] ;
356 -> 358 ;
359 [label=<x<SUB>33</SUB> &le; -0.604<br/>gini = 0.875<br/>samples = 8<br/>value = [0, 0, 0 ... 0, 0, 0]>, fillcolor="#ffffff"] ;
353 -> 359 ;
360 [label=<x<SUB>4</SUB> &le; 3.0<br/>gini = 0.5<br/>samples = 2<br/>value = [0, 0, 0 ... 0, 0, 0]>, fillcolor="#ffffff"] ;
359 -> 360 ;
361 [label=<gini = 0.0<br/>samples = 1<br/>value = [0, 0, 0 ... 0, 0, 0]>, fillcolor="#4439e5"] ;
360 -> 361 ;
362 [label=<gini = 0.0<br/>samples = 1<br/>value = [0, 0, 0 ... 0, 0, 0]>, fillcolor="#39e53f"] ;
360 -> 362 ;
363 [label=<x<SUB>26</SUB> &le; 0.324<br/>gini = 0.833<br/>samples = 6<br/>value = [0, 0, 0 ... 0, 0, 0]>, fillcolor="#ffffff"] ;
359 -> 363 ;
364 [label=<x<SUB>2</SUB> &le; 1.5<br/>gini = 0.75<br/>samples = 4<br/>value = [0, 0, 0 ... 0, 0, 0]>, fillcolor="#ffffff"] ;
363 -> 364 ;
365 [label=<x<SUB>5</SUB> &le; 2.5<br/>gini = 0.5<br/>samples = 2<br/>value = [0, 0, 0 ... 0, 0, 0]>, fillcolor="#ffffff"] ;
364 -> 365 ;
366 [label=<gini = 0.0<br/>samples = 1<br/>value = [0, 0, 0 ... 0, 0, 0]>, fillcolor="#b4e539"] ;
365 -> 366 ;
367 [label=<gini = 0.0<br/>samples = 1<br/>value = [0, 0, 0 ... 0, 0, 0]>, fillcolor="#e539d4"] ;
365 -> 367 ;
368 [label=<x<SUB>3</SUB> &le; 3.5<br/>gini = 0.5<br/>samples = 2<br/>value = [0, 0, 0 ... 0, 0, 0]>, fillcolor="#ffffff"] ;
364 -> 368 ;
369 [label=<gini = 0.0<br/>samples = 1<br/>value = [0, 0, 0 ... 0, 0, 0]>, fillcolor="#39cee5"] ;
368 -> 369 ;
370 [label=<gini = 0.0<br/>samples = 1<br/>value = [0, 0, 0 ... 0, 0, 0]>, fillcolor="#e5393c"] ;
368 -> 370 ;
371 [label=<x<SUB>18</SUB> &le; 0.211<br/>gini = 0.5<br/>samples = 2<br/>value = [0, 0, 0 ... 0, 0, 0]>, fillcolor="#ffffff"] ;
363 -> 371 ;
372 [label=<gini = 0.0<br/>samples = 1<br/>value = [0, 0, 0 ... 0, 0, 0]>, fillcolor="#e5396a"] ;
371 -> 372 ;
373 [label=<gini = 0.0<br/>samples = 1<br/>value = [0, 0, 0 ... 0, 0, 0]>, fillcolor="#e5396d"] ;
371 -> 373 ;
374 [label=<x<SUB>4</SUB> &le; 4.5<br/>gini = 0.971<br/>samples = 36<br/>value = [0, 0, 0 ... 0, 0, 0]>, fillcolor="#f9fefc"] ;
150 -> 374 ;
375 [label=<x<SUB>21</SUB> &le; 0.024<br/>gini = 0.964<br/>samples = 28<br/>value = [0, 0, 0 ... 0, 0, 0]>, fillcolor="#ffffff"] ;
374 -> 375 ;
376 [label=<x<SUB>1</SUB> &le; 1.5<br/>gini = 0.9<br/>samples = 10<br/>value = [0, 0, 0 ... 0, 0, 0]>, fillcolor="#ffffff"] ;
375 -> 376 ;
377 [label=<x<SUB>2</SUB> &le; 1.5<br/>gini = 0.833<br/>samples = 6<br/>value = [0, 0, 0 ... 0, 0, 0]>, fillcolor="#ffffff"] ;
376 -> 377 ;
378 [label=<x<SUB>3</SUB> &le; 1.5<br/>gini = 0.75<br/>samples = 4<br/>value = [0, 0, 0 ... 0, 0, 0]>, fillcolor="#ffffff"] ;
377 -> 378 ;
379 [label=<x<SUB>5</SUB> &le; 1.5<br/>gini = 0.667<br/>samples = 3<br/>value = [0, 0, 0 ... 0, 0, 0]>, fillcolor="#ffffff"] ;
378 -> 379 ;
380 [label=<x<SUB>4</SUB> &le; 1.5<br/>gini = 0.5<br/>samples = 2<br/>value = [0, 0, 0 ... 0, 0, 0]>, fillcolor="#ffffff"] ;
379 -> 380 ;
381 [label=<gini = 0.0<br/>samples = 1<br/>value = [0, 0, 0 ... 0, 0, 0]>, fillcolor="#df39e5"] ;
380 -> 381 ;
382 [label=<gini = 0.0<br/>samples = 1<br/>value = [0, 0, 0 ... 0, 0, 0]>, fillcolor="#e58c39"] ;
380 -> 382 ;
383 [label=<gini = 0.0<br/>samples = 1<br/>value = [0, 0, 0 ... 0, 0, 0]>, fillcolor="#39e558"] ;
379 -> 383 ;
384 [label=<gini = 0.0<br/>samples = 1<br/>value = [0, 0, 0 ... 0, 0, 0]>, fillcolor="#e539bd"] ;
378 -> 384 ;
385 [label=<x<SUB>4</SUB> &le; 1.5<br/>gini = 0.5<br/>samples = 2<br/>value = [0, 0, 0 ... 0, 0, 0]>, fillcolor="#ffffff"] ;
377 -> 385 ;
386 [label=<gini = 0.0<br/>samples = 1<br/>value = [0, 0, 0 ... 0, 0, 0]>, fillcolor="#e58939"] ;
385 -> 386 ;
387 [label=<gini = 0.0<br/>samples = 1<br/>value = [0, 0, 0 ... 0, 0, 0]>, fillcolor="#39e5bd"] ;
385 -> 387 ;
388 [label=<x<SUB>2</SUB> &le; 1.5<br/>gini = 0.75<br/>samples = 4<br/>value = [0, 0, 0 ... 0, 0, 0]>, fillcolor="#ffffff"] ;
376 -> 388 ;
389 [label=<x<SUB>4</SUB> &le; 2.5<br/>gini = 0.5<br/>samples = 2<br/>value = [0, 0, 0 ... 0, 0, 0]>, fillcolor="#ffffff"] ;
388 -> 389 ;
390 [label=<gini = 0.0<br/>samples = 1<br/>value = [0, 0, 0 ... 0, 0, 0]>, fillcolor="#e5a939"] ;
389 -> 390 ;
391 [label=<gini = 0.0<br/>samples = 1<br/>value = [0, 0, 0 ... 0, 0, 0]>, fillcolor="#8f39e5"] ;
389 -> 391 ;
392 [label=<x<SUB>3</SUB> &le; 2.0<br/>gini = 0.5<br/>samples = 2<br/>value = [0, 0, 0 ... 0, 0, 0]>, fillcolor="#ffffff"] ;
388 -> 392 ;
393 [label=<gini = 0.0<br/>samples = 1<br/>value = [0, 0, 0 ... 0, 0, 0]>, fillcolor="#6a39e5"] ;
392 -> 393 ;
394 [label=<gini = 0.0<br/>samples = 1<br/>value = [0, 0, 0 ... 0, 0, 0]>, fillcolor="#e58f39"] ;
392 -> 394 ;
395 [label=<x<SUB>5</SUB> &le; 1.5<br/>gini = 0.944<br/>samples = 18<br/>value = [0, 0, 0 ... 0, 0, 0]>, fillcolor="#ffffff"] ;
375 -> 395 ;
396 [label=<x<SUB>15</SUB> &le; 0.303<br/>gini = 0.75<br/>samples = 4<br/>value = [0, 0, 0 ... 0, 0, 0]>, fillcolor="#ffffff"] ;
395 -> 396 ;
397 [label=<x<SUB>1</SUB> &le; 1.5<br/>gini = 0.5<br/>samples = 2<br/>value = [0, 0, 0 ... 0, 0, 0]>, fillcolor="#ffffff"] ;
396 -> 397 ;
398 [label=<gini = 0.0<br/>samples = 1<br/>value = [0, 0, 0 ... 0, 0, 0]>, fillcolor="#39e54a"] ;
397 -> 398 ;
399 [label=<gini = 0.0<br/>samples = 1<br/>value = [0, 0, 0 ... 0, 0, 0]>, fillcolor="#e54a39"] ;
397 -> 399 ;
400 [label=<x<SUB>1</SUB> &le; 1.5<br/>gini = 0.5<br/>samples = 2<br/>value = [0, 0, 0 ... 0, 0, 0]>, fillcolor="#ffffff"] ;
396 -> 400 ;
401 [label=<gini = 0.0<br/>samples = 1<br/>value = [0, 0, 0 ... 0, 0, 0]>, fillcolor="#e5ac39"] ;
400 -> 401 ;
402 [label=<gini = 0.0<br/>samples = 1<br/>value = [0, 0, 0 ... 0, 0, 0]>, fillcolor="#e5a339"] ;
400 -> 402 ;
403 [label=<x<SUB>8</SUB> &le; -0.737<br/>gini = 0.929<br/>samples = 14<br/>value = [0, 0, 0 ... 0, 0, 0]>, fillcolor="#ffffff"] ;
395 -> 403 ;
404 [label=<x<SUB>3</SUB> &le; 1.5<br/>gini = 0.75<br/>samples = 4<br/>value = [0, 0, 0 ... 0, 0, 0]>, fillcolor="#ffffff"] ;
403 -> 404 ;
405 [label=<x<SUB>1</SUB> &le; 1.5<br/>gini = 0.667<br/>samples = 3<br/>value = [0, 0, 0 ... 0, 0, 0]>, fillcolor="#ffffff"] ;
404 -> 405 ;
406 [label=<gini = 0.0<br/>samples = 1<br/>value = [0, 0, 0 ... 0, 0, 0]>, fillcolor="#e5a039"] ;
405 -> 406 ;
407 [label=<x<SUB>5</SUB> &le; 2.5<br/>gini = 0.5<br/>samples = 2<br/>value = [0, 0, 0 ... 0, 0, 0]>, fillcolor="#ffffff"] ;
405 -> 407 ;
408 [label=<gini = 0.0<br/>samples = 1<br/>value = [0, 0, 0 ... 0, 0, 0]>, fillcolor="#e5e239"] ;
407 -> 408 ;
409 [label=<gini = 0.0<br/>samples = 1<br/>value = [0, 0, 0 ... 0, 0, 0]>, fillcolor="#3961e5"] ;
407 -> 409 ;
410 [label=<gini = 0.0<br/>samples = 1<br/>value = [0, 0, 0 ... 0, 0, 0]>, fillcolor="#bae539"] ;
404 -> 410 ;
411 [label=<x<SUB>0</SUB> &le; 5.0<br/>gini = 0.9<br/>samples = 10<br/>value = [0, 0, 0 ... 0, 0, 0]>, fillcolor="#ffffff"] ;
403 -> 411 ;
412 [label=<x<SUB>2</SUB> &le; 1.5<br/>gini = 0.75<br/>samples = 4<br/>value = [0, 0, 0 ... 0, 0, 0]>, fillcolor="#ffffff"] ;
411 -> 412 ;
413 [label=<gini = 0.0<br/>samples = 1<br/>value = [0, 0, 0 ... 0, 0, 0]>, fillcolor="#e5397e"] ;
412 -> 413 ;
414 [label=<x<SUB>4</SUB> &le; 1.5<br/>gini = 0.667<br/>samples = 3<br/>value = [0, 0, 0 ... 0, 0, 0]>, fillcolor="#ffffff"] ;
412 -> 414 ;
415 [label=<x<SUB>3</SUB> &le; 2.0<br/>gini = 0.5<br/>samples = 2<br/>value = [0, 0, 0 ... 0, 0, 0]>, fillcolor="#ffffff"] ;
414 -> 415 ;
416 [label=<gini = 0.0<br/>samples = 1<br/>value = [0, 0, 0 ... 0, 0, 0]>, fillcolor="#39e56f"] ;
415 -> 416 ;
417 [label=<gini = 0.0<br/>samples = 1<br/>value = [0, 0, 0 ... 0, 0, 0]>, fillcolor="#95e539"] ;
415 -> 417 ;
418 [label=<gini = 0.0<br/>samples = 1<br/>value = [0, 0, 0 ... 0, 0, 0]>, fillcolor="#e59239"] ;
414 -> 418 ;
419 [label=<x<SUB>18</SUB> &le; -0.388<br/>gini = 0.833<br/>samples = 6<br/>value = [0, 0, 0 ... 0, 0, 0]>, fillcolor="#ffffff"] ;
411 -> 419 ;
420 [label=<x<SUB>2</SUB> &le; 1.5<br/>gini = 0.75<br/>samples = 4<br/>value = [0, 0, 0 ... 0, 0, 0]>, fillcolor="#ffffff"] ;
419 -> 420 ;
421 [label=<x<SUB>4</SUB> &le; 1.5<br/>gini = 0.5<br/>samples = 2<br/>value = [0, 0, 0 ... 0, 0, 0]>, fillcolor="#ffffff"] ;
420 -> 421 ;
422 [label=<gini = 0.0<br/>samples = 1<br/>value = [0, 0, 0 ... 0, 0, 0]>, fillcolor="#393fe5"] ;
421 -> 422 ;
423 [label=<gini = 0.0<br/>samples = 1<br/>value = [0, 0, 0 ... 0, 0, 0]>, fillcolor="#3947e5"] ;
421 -> 423 ;
424 [label=<x<SUB>3</SUB> &le; 2.0<br/>gini = 0.5<br/>samples = 2<br/>value = [0, 0, 0 ... 0, 0, 0]>, fillcolor="#ffffff"] ;
420 -> 424 ;
425 [label=<gini = 0.0<br/>samples = 1<br/>value = [0, 0, 0 ... 0, 0, 0]>, fillcolor="#e5b139"] ;
424 -> 425 ;
426 [label=<gini = 0.0<br/>samples = 1<br/>value = [0, 0, 0 ... 0, 0, 0]>, fillcolor="#e539ce"] ;
424 -> 426 ;
427 [label=<x<SUB>3</SUB> &le; 3.0<br/>gini = 0.5<br/>samples = 2<br/>value = [0, 0, 0 ... 0, 0, 0]>, fillcolor="#ffffff"] ;
419 -> 427 ;
428 [label=<gini = 0.0<br/>samples = 1<br/>value = [0, 0, 0 ... 0, 0, 0]>, fillcolor="#3956e5"] ;
427 -> 428 ;
429 [label=<gini = 0.0<br/>samples = 1<br/>value = [0, 0, 0 ... 0, 0, 0]>, fillcolor="#39e541"] ;
427 -> 429 ;
430 [label=<x<SUB>21</SUB> &le; 0.024<br/>gini = 0.844<br/>samples = 8<br/>value = [0, 0, 0 ... 0, 0, 0]>, fillcolor="#e3fbee"] ;
374 -> 430 ;
431 [label=<x<SUB>1</SUB> &le; 1.5<br/>gini = 0.444<br/>samples = 3<br/>value = [0, 0, 0 ... 0, 0, 0]>, fillcolor="#9cf2c2"] ;
430 -> 431 ;
432 [label=<gini = 0.0<br/>samples = 2<br/>value = [0, 0, 0 ... 0, 0, 0]>, fillcolor="#39e586"] ;
431 -> 432 ;
433 [label=<gini = 0.0<br/>samples = 1<br/>value = [0, 0, 0 ... 0, 0, 0]>, fillcolor="#e53992"] ;
431 -> 433 ;
434 [label=<x<SUB>22</SUB> &le; 0.242<br/>gini = 0.8<br/>samples = 5<br/>value = [0, 0, 0 ... 0, 0, 0]>, fillcolor="#ffffff"] ;
430 -> 434 ;
435 [label=<gini = 0.0<br/>samples = 1<br/>value = [0, 0, 0 ... 0, 0, 0]>, fillcolor="#e53964"] ;
434 -> 435 ;
436 [label=<x<SUB>15</SUB> &le; 0.601<br/>gini = 0.75<br/>samples = 4<br/>value = [0, 0, 0 ... 0, 0, 0]>, fillcolor="#ffffff"] ;
434 -> 436 ;
437 [label=<x<SUB>5</SUB> &le; 1.5<br/>gini = 0.5<br/>samples = 2<br/>value = [0, 0, 0 ... 0, 0, 0]>, fillcolor="#ffffff"] ;
436 -> 437 ;
438 [label=<gini = 0.0<br/>samples = 1<br/>value = [0, 0, 0 ... 0, 0, 0]>, fillcolor="#39dce5"] ;
437 -> 438 ;
439 [label=<gini = 0.0<br/>samples = 1<br/>value = [0, 0, 0 ... 0, 0, 0]>, fillcolor="#e53953"] ;
437 -> 439 ;
440 [label=<x<SUB>5</SUB> &le; 2.5<br/>gini = 0.5<br/>samples = 2<br/>value = [0, 0, 0 ... 0, 0, 0]>, fillcolor="#ffffff"] ;
436 -> 440 ;
441 [label=<gini = 0.0<br/>samples = 1<br/>value = [0, 0, 0 ... 0, 0, 0]>, fillcolor="#e539c0"] ;
440 -> 441 ;
442 [label=<gini = 0.0<br/>samples = 1<br/>value = [0, 0, 0 ... 0, 0, 0]>, fillcolor="#e54139"] ;
440 -> 442 ;
443 [label=<x<SUB>31</SUB> &le; -0.386<br/>gini = 0.968<br/>samples = 35<br/>value = [0, 0, 0 ... 0, 0, 0]>, fillcolor="#ffffff"] ;
149 -> 443 ;
444 [label=<x<SUB>2</SUB> &le; 1.5<br/>gini = 0.948<br/>samples = 21<br/>value = [0, 0, 0 ... 0, 0, 0]>, fillcolor="#fef5f7"] ;
443 -> 444 ;
445 [label=<x<SUB>5</SUB> &le; 2.5<br/>gini = 0.903<br/>samples = 12<br/>value = [0, 0, 0 ... 0, 0, 0]>, fillcolor="#fdedf0"] ;
444 -> 445 ;
446 [label=<x<SUB>5</SUB> &le; 1.5<br/>gini = 0.778<br/>samples = 6<br/>value = [0, 0, 0 ... 0, 0, 0]>, fillcolor="#fad7de"] ;
445 -> 446 ;
447 [label=<x<SUB>3</SUB> &le; 2.5<br/>gini = 0.667<br/>samples = 3<br/>value = [0, 0, 0 ... 0, 0, 0]>, fillcolor="#ffffff"] ;
446 -> 447 ;
448 [label=<gini = 0.0<br/>samples = 1<br/>value = [0, 0, 0 ... 0, 0, 0]>, fillcolor="#b739e5"] ;
447 -> 448 ;
449 [label=<x<SUB>4</SUB> &le; 2.5<br/>gini = 0.5<br/>samples = 2<br/>value = [0, 0, 0 ... 0, 0, 0]>, fillcolor="#ffffff"] ;
447 -> 449 ;
450 [label=<gini = 0.0<br/>samples = 1<br/>value = [0, 0, 0 ... 0, 0, 0]>, fillcolor="#39bae5"] ;
449 -> 450 ;
451 [label=<gini = 0.0<br/>samples = 1<br/>value = [0, 0, 0 ... 0, 0, 0]>, fillcolor="#e53958"] ;
449 -> 451 ;
452 [label=<x<SUB>4</SUB> &le; 4.5<br/>gini = 0.444<br/>samples = 3<br/>value = [0, 0, 0 ... 0, 0, 0]>, fillcolor="#f29cac"] ;
446 -> 452 ;
453 [label=<gini = 0.0<br/>samples = 2<br/>value = [0, 0, 0 ... 0, 0, 0]>, fillcolor="#e53958"] ;
452 -> 453 ;
454 [label=<gini = 0.0<br/>samples = 1<br/>value = [0, 0, 0 ... 0, 0, 0]>, fillcolor="#39e5a9"] ;
452 -> 454 ;
455 [label=<x<SUB>1</SUB> &le; 1.5<br/>gini = 0.833<br/>samples = 6<br/>value = [0, 0, 0 ... 0, 0, 0]>, fillcolor="#ffffff"] ;
445 -> 455 ;
456 [label=<x<SUB>3</SUB> &le; 2.5<br/>gini = 0.75<br/>samples = 4<br/>value = [0, 0, 0 ... 0, 0, 0]>, fillcolor="#ffffff"] ;
455 -> 456 ;
457 [label=<gini = 0.0<br/>samples = 1<br/>value = [0, 0, 0 ... 0, 0, 0]>, fillcolor="#c0e539"] ;
456 -> 457 ;
458 [label=<x<SUB>3</SUB> &le; 3.5<br/>gini = 0.667<br/>samples = 3<br/>value = [0, 0, 0 ... 0, 0, 0]>, fillcolor="#ffffff"] ;
456 -> 458 ;
459 [label=<gini = 0.0<br/>samples = 1<br/>value = [0, 0, 0 ... 0, 0, 0]>, fillcolor="#95e539"] ;
458 -> 459 ;
460 [label=<x<SUB>4</SUB> &le; 3.5<br/>gini = 0.5<br/>samples = 2<br/>value = [0, 0, 0 ... 0, 0, 0]>, fillcolor="#ffffff"] ;
458 -> 460 ;
461 [label=<gini = 0.0<br/>samples = 1<br/>value = [0, 0, 0 ... 0, 0, 0]>, fillcolor="#e5396d"] ;
460 -> 461 ;
462 [label=<gini = 0.0<br/>samples = 1<br/>value = [0, 0, 0 ... 0, 0, 0]>, fillcolor="#e54d39"] ;
460 -> 462 ;
463 [label=<x<SUB>4</SUB> &le; 2.5<br/>gini = 0.5<br/>samples = 2<br/>value = [0, 0, 0 ... 0, 0, 0]>, fillcolor="#ffffff"] ;
455 -> 463 ;
464 [label=<gini = 0.0<br/>samples = 1<br/>value = [0, 0, 0 ... 0, 0, 0]>, fillcolor="#e59539"] ;
463 -> 464 ;
465 [label=<gini = 0.0<br/>samples = 1<br/>value = [0, 0, 0 ... 0, 0, 0]>, fillcolor="#e539c5"] ;
463 -> 465 ;
466 [label=<x<SUB>1</SUB> &le; 1.5<br/>gini = 0.889<br/>samples = 9<br/>value = [0, 0, 0 ... 0, 0, 0]>, fillcolor="#ffffff"] ;
444 -> 466 ;
467 [label=<x<SUB>5</SUB> &le; 1.5<br/>gini = 0.667<br/>samples = 3<br/>value = [0, 0, 0 ... 0, 0, 0]>, fillcolor="#ffffff"] ;
466 -> 467 ;
468 [label=<gini = 0.0<br/>samples = 1<br/>value = [0, 0, 0 ... 0, 0, 0]>, fillcolor="#e539ce"] ;
467 -> 468 ;
469 [label=<x<SUB>3</SUB> &le; 3.0<br/>gini = 0.5<br/>samples = 2<br/>value = [0, 0, 0 ... 0, 0, 0]>, fillcolor="#ffffff"] ;
467 -> 469 ;
470 [label=<gini = 0.0<br/>samples = 1<br/>value = [0, 0, 0 ... 0, 0, 0]>, fillcolor="#e5b439"] ;
469 -> 470 ;
471 [label=<gini = 0.0<br/>samples = 1<br/>value = [0, 0, 0 ... 0, 0, 0]>, fillcolor="#e57239"] ;
469 -> 471 ;
472 [label=<x<SUB>4</SUB> &le; 1.5<br/>gini = 0.833<br/>samples = 6<br/>value = [0, 0, 0 ... 0, 0, 0]>, fillcolor="#ffffff"] ;
466 -> 472 ;
473 [label=<gini = 0.0<br/>samples = 1<br/>value = [0, 0, 0 ... 0, 0, 0]>, fillcolor="#92e539"] ;
472 -> 473 ;
474 [label=<x<SUB>4</SUB> &le; 3.0<br/>gini = 0.8<br/>samples = 5<br/>value = [0, 0, 0 ... 0, 0, 0]>, fillcolor="#ffffff"] ;
472 -> 474 ;
475 [label=<x<SUB>3</SUB> &le; 2.5<br/>gini = 0.5<br/>samples = 2<br/>value = [0, 0, 0 ... 0, 0, 0]>, fillcolor="#ffffff"] ;
474 -> 475 ;
476 [label=<gini = 0.0<br/>samples = 1<br/>value = [0, 0, 0 ... 0, 0, 0]>, fillcolor="#e58939"] ;
475 -> 476 ;
477 [label=<gini = 0.0<br/>samples = 1<br/>value = [0, 0, 0 ... 0, 0, 0]>, fillcolor="#39e53f"] ;
475 -> 477 ;
478 [label=<x<SUB>4</SUB> &le; 4.5<br/>gini = 0.667<br/>samples = 3<br/>value = [0, 0, 0 ... 0, 0, 0]>, fillcolor="#ffffff"] ;
474 -> 478 ;
479 [label=<gini = 0.0<br/>samples = 1<br/>value = [0, 0, 0 ... 0, 0, 0]>, fillcolor="#9ae539"] ;
478 -> 479 ;
480 [label=<x<SUB>3</SUB> &le; 1.5<br/>gini = 0.5<br/>samples = 2<br/>value = [0, 0, 0 ... 0, 0, 0]>, fillcolor="#ffffff"] ;
478 -> 480 ;
481 [label=<gini = 0.0<br/>samples = 1<br/>value = [0, 0, 0 ... 0, 0, 0]>, fillcolor="#e5a639"] ;
480 -> 481 ;
482 [label=<gini = 0.0<br/>samples = 1<br/>value = [0, 0, 0 ... 0, 0, 0]>, fillcolor="#47e539"] ;
480 -> 482 ;
483 [label=<x<SUB>5</SUB> &le; 2.5<br/>gini = 0.918<br/>samples = 14<br/>value = [0, 0, 0 ... 0, 0, 0]>, fillcolor="#f0fdf2"] ;
443 -> 483 ;
484 [label=<x<SUB>5</SUB> &le; 1.5<br/>gini = 0.857<br/>samples = 7<br/>value = [0, 0, 0 ... 0, 0, 0]>, fillcolor="#ffffff"] ;
483 -> 484 ;
485 [label=<x<SUB>1</SUB> &le; 1.5<br/>gini = 0.5<br/>samples = 2<br/>value = [0, 0, 0 ... 0, 0, 0]>, fillcolor="#ffffff"] ;
484 -> 485 ;
486 [label=<gini = 0.0<br/>samples = 1<br/>value = [0, 0, 0 ... 0, 0, 0]>, fillcolor="#e5394d"] ;
485 -> 486 ;
487 [label=<gini = 0.0<br/>samples = 1<br/>value = [0, 0, 0 ... 0, 0, 0]>, fillcolor="#39e5c8"] ;
485 -> 487 ;
488 [label=<x<SUB>1</SUB> &le; 1.5<br/>gini = 0.8<br/>samples = 5<br/>value = [0, 0, 0 ... 0, 0, 0]>, fillcolor="#ffffff"] ;
484 -> 488 ;
489 [label=<gini = 0.0<br/>samples = 1<br/>value = [0, 0, 0 ... 0, 0, 0]>, fillcolor="#39a3e5"] ;
488 -> 489 ;
490 [label=<x<SUB>2</SUB> &le; 1.5<br/>gini = 0.75<br/>samples = 4<br/>value = [0, 0, 0 ... 0, 0, 0]>, fillcolor="#ffffff"] ;
488 -> 490 ;
491 [label=<gini = 0.0<br/>samples = 1<br/>value = [0, 0, 0 ... 0, 0, 0]>, fillcolor="#39c8e5"] ;
490 -> 491 ;
492 [label=<x<SUB>4</SUB> &le; 4.0<br/>gini = 0.667<br/>samples = 3<br/>value = [0, 0, 0 ... 0, 0, 0]>, fillcolor="#ffffff"] ;
490 -> 492 ;
493 [label=<x<SUB>3</SUB> &le; 3.5<br/>gini = 0.5<br/>samples = 2<br/>value = [0, 0, 0 ... 0, 0, 0]>, fillcolor="#ffffff"] ;
492 -> 493 ;
494 [label=<gini = 0.0<br/>samples = 1<br/>value = [0, 0, 0 ... 0, 0, 0]>, fillcolor="#8fe539"] ;
493 -> 494 ;
495 [label=<gini = 0.0<br/>samples = 1<br/>value = [0, 0, 0 ... 0, 0, 0]>, fillcolor="#53e539"] ;
493 -> 495 ;
496 [label=<gini = 0.0<br/>samples = 1<br/>value = [0, 0, 0 ... 0, 0, 0]>, fillcolor="#dfe539"] ;
492 -> 496 ;
497 [label=<x<SUB>3</SUB> &le; 2.5<br/>gini = 0.816<br/>samples = 7<br/>value = [0, 0, 0 ... 0, 0, 0]>, fillcolor="#defbe3"] ;
483 -> 497 ;
498 [label=<x<SUB>3</SUB> &le; 1.5<br/>gini = 0.5<br/>samples = 2<br/>value = [0, 0, 0 ... 0, 0, 0]>, fillcolor="#ffffff"] ;
497 -> 498 ;
499 [label=<gini = 0.0<br/>samples = 1<br/>value = [0, 0, 0 ... 0, 0, 0]>, fillcolor="#399de5"] ;
498 -> 499 ;
500 [label=<gini = 0.0<br/>samples = 1<br/>value = [0, 0, 0 ... 0, 0, 0]>, fillcolor="#39a6e5"] ;
498 -> 500 ;
501 [label=<x<SUB>1</SUB> &le; 1.5<br/>gini = 0.72<br/>samples = 5<br/>value = [0, 0, 0 ... 0, 0, 0]>, fillcolor="#cef8d5"] ;
497 -> 501 ;
502 [label=<x<SUB>3</SUB> &le; 3.5<br/>gini = 0.625<br/>samples = 4<br/>value = [0, 0, 0 ... 0, 0, 0]>, fillcolor="#bdf6c7"] ;
501 -> 502 ;
503 [label=<gini = 0.0<br/>samples = 1<br/>value = [0, 0, 0 ... 0, 0, 0]>, fillcolor="#39e558"] ;
502 -> 503 ;
504 [label=<x<SUB>2</SUB> &le; 1.5<br/>gini = 0.667<br/>samples = 3<br/>value = [0, 0, 0 ... 0, 0, 0]>, fillcolor="#ffffff"] ;
502 -> 504 ;
505 [label=<gini = 0.0<br/>samples = 1<br/>value = [0, 0, 0 ... 0, 0, 0]>, fillcolor="#39e558"] ;
504 -> 505 ;
506 [label=<x<SUB>4</SUB> &le; 4.5<br/>gini = 0.5<br/>samples = 2<br/>value = [0, 0, 0 ... 0, 0, 0]>, fillcolor="#ffffff"] ;
504 -> 506 ;
507 [label=<gini = 0.0<br/>samples = 1<br/>value = [0, 0, 0 ... 0, 0, 0]>, fillcolor="#e57539"] ;
506 -> 507 ;
508 [label=<gini = 0.0<br/>samples = 1<br/>value = [0, 0, 0 ... 0, 0, 0]>, fillcolor="#e57839"] ;
506 -> 508 ;
509 [label=<gini = 0.0<br/>samples = 1<br/>value = [0, 0, 0 ... 0, 0, 0]>, fillcolor="#3989e5"] ;
501 -> 509 ;
510 [label=<x<SUB>4</SUB> &le; 2.5<br/>gini = 0.942<br/>samples = 19<br/>value = [0, 0, 0 ... 0, 0, 0]>, fillcolor="#f4f7fe"] ;
148 -> 510 ;
511 [label=<x<SUB>3</SUB> &le; 1.5<br/>gini = 0.816<br/>samples = 7<br/>value = [0, 0, 0 ... 0, 0, 0]>, fillcolor="#dee7fb"] ;
510 -> 511 ;
512 [label=<x<SUB>20</SUB> &le; 1.295<br/>gini = 0.72<br/>samples = 5<br/>value = [0, 0, 0 ... 0, 0, 0]>, fillcolor="#cedbf8"] ;
511 -> 512 ;
513 [label=<x<SUB>12</SUB> &le; -0.595<br/>gini = 0.625<br/>samples = 4<br/>value = [0, 0, 0 ... 0, 0, 0]>, fillcolor="#bdcff6"] ;
512 -> 513 ;
514 [label=<x<SUB>1</SUB> &le; 1.5<br/>gini = 0.667<br/>samples = 3<br/>value = [0, 0, 0 ... 0, 0, 0]>, fillcolor="#ffffff"] ;
513 -> 514 ;
515 [label=<x<SUB>2</SUB> &le; 1.5<br/>gini = 0.5<br/>samples = 2<br/>value = [0, 0, 0 ... 0, 0, 0]>, fillcolor="#ffffff"] ;
514 -> 515 ;
516 [label=<gini = 0.0<br/>samples = 1<br/>value = [0, 0, 0 ... 0, 0, 0]>, fillcolor="#ba39e5"] ;
515 -> 516 ;
517 [label=<gini = 0.0<br/>samples = 1<br/>value = [0, 0, 0 ... 0, 0, 0]>, fillcolor="#e5ce39"] ;
515 -> 517 ;
518 [label=<gini = 0.0<br/>samples = 1<br/>value = [0, 0, 0 ... 0, 0, 0]>, fillcolor="#396fe5"] ;
514 -> 518 ;
519 [label=<gini = 0.0<br/>samples = 1<br/>value = [0, 0, 0 ... 0, 0, 0]>, fillcolor="#396fe5"] ;
513 -> 519 ;
520 [label=<gini = 0.0<br/>samples = 1<br/>value = [0, 0, 0 ... 0, 0, 0]>, fillcolor="#e5a639"] ;
512 -> 520 ;
521 [label=<x<SUB>4</SUB> &le; 1.5<br/>gini = 0.5<br/>samples = 2<br/>value = [0, 0, 0 ... 0, 0, 0]>, fillcolor="#ffffff"] ;
511 -> 521 ;
522 [label=<gini = 0.0<br/>samples = 1<br/>value = [0, 0, 0 ... 0, 0, 0]>, fillcolor="#e5df39"] ;
521 -> 522 ;
523 [label=<gini = 0.0<br/>samples = 1<br/>value = [0, 0, 0 ... 0, 0, 0]>, fillcolor="#a9e539"] ;
521 -> 523 ;
524 [label=<x<SUB>21</SUB> &le; -0.214<br/>gini = 0.917<br/>samples = 12<br/>value = [0, 0, 0 ... 0, 0, 0]>, fillcolor="#ffffff"] ;
510 -> 524 ;
525 [label=<gini = 0.0<br/>samples = 1<br/>value = [0, 0, 0 ... 0, 0, 0]>, fillcolor="#e5396f"] ;
524 -> 525 ;
526 [label=<x<SUB>23</SUB> &le; -0.838<br/>gini = 0.909<br/>samples = 11<br/>value = [0, 0, 0 ... 0, 0, 0]>, fillcolor="#ffffff"] ;
524 -> 526 ;
527 [label=<gini = 0.0<br/>samples = 1<br/>value = [0, 0, 0 ... 0, 0, 0]>, fillcolor="#9a39e5"] ;
526 -> 527 ;
528 [label=<x<SUB>24</SUB> &le; 0.547<br/>gini = 0.9<br/>samples = 10<br/>value = [0, 0, 0 ... 0, 0, 0]>, fillcolor="#ffffff"] ;
526 -> 528 ;
529 [label=<x<SUB>1</SUB> &le; 1.5<br/>gini = 0.667<br/>samples = 3<br/>value = [0, 0, 0 ... 0, 0, 0]>, fillcolor="#ffffff"] ;
528 -> 529 ;
530 [label=<x<SUB>3</SUB> &le; 51.0<br/>gini = 0.5<br/>samples = 2<br/>value = [0, 0, 0 ... 0, 0, 0]>, fillcolor="#ffffff"] ;
529 -> 530 ;
531 [label=<gini = 0.0<br/>samples = 1<br/>value = [0, 0, 0 ... 0, 0, 0]>, fillcolor="#e56d39"] ;
530 -> 531 ;
532 [label=<gini = 0.0<br/>samples = 1<br/>value = [0, 0, 0 ... 0, 0, 0]>, fillcolor="#395ee5"] ;
530 -> 532 ;
533 [label=<gini = 0.0<br/>samples = 1<br/>value = [0, 0, 0 ... 0, 0, 0]>, fillcolor="#e56f39"] ;
529 -> 533 ;
534 [label=<x<SUB>5</SUB> &le; 1.5<br/>gini = 0.857<br/>samples = 7<br/>value = [0, 0, 0 ... 0, 0, 0]>, fillcolor="#ffffff"] ;
528 -> 534 ;
535 [label=<gini = 0.0<br/>samples = 1<br/>value = [0, 0, 0 ... 0, 0, 0]>, fillcolor="#89e539"] ;
534 -> 535 ;
536 [label=<x<SUB>1</SUB> &le; 1.5<br/>gini = 0.833<br/>samples = 6<br/>value = [0, 0, 0 ... 0, 0, 0]>, fillcolor="#ffffff"] ;
534 -> 536 ;
537 [label=<x<SUB>4</SUB> &le; 4.5<br/>gini = 0.667<br/>samples = 3<br/>value = [0, 0, 0 ... 0, 0, 0]>, fillcolor="#ffffff"] ;
536 -> 537 ;
538 [label=<gini = 0.0<br/>samples = 1<br/>value = [0, 0, 0 ... 0, 0, 0]>, fillcolor="#397be5"] ;
537 -> 538 ;
539 [label=<x<SUB>2</SUB> &le; 1.5<br/>gini = 0.5<br/>samples = 2<br/>value = [0, 0, 0 ... 0, 0, 0]>, fillcolor="#ffffff"] ;
537 -> 539 ;
540 [label=<gini = 0.0<br/>samples = 1<br/>value = [0, 0, 0 ... 0, 0, 0]>, fillcolor="#e57539"] ;
539 -> 540 ;
541 [label=<gini = 0.0<br/>samples = 1<br/>value = [0, 0, 0 ... 0, 0, 0]>, fillcolor="#e56f39"] ;
539 -> 541 ;
542 [label=<x<SUB>2</SUB> &le; 1.5<br/>gini = 0.667<br/>samples = 3<br/>value = [0, 0, 0 ... 0, 0, 0]>, fillcolor="#ffffff"] ;
536 -> 542 ;
543 [label=<x<SUB>3</SUB> &le; 2.5<br/>gini = 0.5<br/>samples = 2<br/>value = [0, 0, 0 ... 0, 0, 0]>, fillcolor="#ffffff"] ;
542 -> 543 ;
544 [label=<gini = 0.0<br/>samples = 1<br/>value = [0, 0, 0 ... 0, 0, 0]>, fillcolor="#39e5e5"] ;
543 -> 544 ;
545 [label=<gini = 0.0<br/>samples = 1<br/>value = [0, 0, 0 ... 0, 0, 0]>, fillcolor="#4ae539"] ;
543 -> 545 ;
546 [label=<gini = 0.0<br/>samples = 1<br/>value = [0, 0, 0 ... 0, 0, 0]>, fillcolor="#bd39e5"] ;
542 -> 546 ;
547 [label=<x<SUB>3</SUB> &le; 2.5<br/>gini = 0.918<br/>samples = 14<br/>value = [0, 0, 0 ... 0, 0, 0]>, fillcolor="#f0fdf4"] ;
117 -> 547 ;
548 [label=<x<SUB>1</SUB> &le; 1.5<br/>gini = 0.857<br/>samples = 7<br/>value = [0, 0, 0 ... 0, 0, 0]>, fillcolor="#ffffff"] ;
547 -> 548 ;
549 [label=<x<SUB>5</SUB> &le; 2.5<br/>gini = 0.667<br/>samples = 3<br/>value = [0, 0, 0 ... 0, 0, 0]>, fillcolor="#ffffff"] ;
548 -> 549 ;
550 [label=<gini = 0.0<br/>samples = 1<br/>value = [0, 0, 0 ... 0, 0, 0]>, fillcolor="#399ae5"] ;
549 -> 550 ;
551 [label=<x<SUB>4</SUB> &le; 3.0<br/>gini = 0.5<br/>samples = 2<br/>value = [0, 0, 0 ... 0, 0, 0]>, fillcolor="#ffffff"] ;
549 -> 551 ;
552 [label=<gini = 0.0<br/>samples = 1<br/>value = [0, 0, 0 ... 0, 0, 0]>, fillcolor="#dfe539"] ;
551 -> 552 ;
553 [label=<gini = 0.0<br/>samples = 1<br/>value = [0, 0, 0 ... 0, 0, 0]>, fillcolor="#e53958"] ;
551 -> 553 ;
554 [label=<x<SUB>3</SUB> &le; 1.5<br/>gini = 0.75<br/>samples = 4<br/>value = [0, 0, 0 ... 0, 0, 0]>, fillcolor="#ffffff"] ;
548 -> 554 ;
555 [label=<x<SUB>4</SUB> &le; 2.0<br/>gini = 0.5<br/>samples = 2<br/>value = [0, 0, 0 ... 0, 0, 0]>, fillcolor="#ffffff"] ;
554 -> 555 ;
556 [label=<gini = 0.0<br/>samples = 1<br/>value = [0, 0, 0 ... 0, 0, 0]>, fillcolor="#e58339"] ;
555 -> 556 ;
557 [label=<gini = 0.0<br/>samples = 1<br/>value = [0, 0, 0 ... 0, 0, 0]>, fillcolor="#e58339"] ;
555 -> 557 ;
558 [label=<x<SUB>2</SUB> &le; 1.5<br/>gini = 0.5<br/>samples = 2<br/>value = [0, 0, 0 ... 0, 0, 0]>, fillcolor="#ffffff"] ;
554 -> 558 ;
559 [label=<gini = 0.0<br/>samples = 1<br/>value = [0, 0, 0 ... 0, 0, 0]>, fillcolor="#e56139"] ;
558 -> 559 ;
560 [label=<gini = 0.0<br/>samples = 1<br/>value = [0, 0, 0 ... 0, 0, 0]>, fillcolor="#41e539"] ;
558 -> 560 ;
561 [label=<x<SUB>5</SUB> &le; 2.0<br/>gini = 0.816<br/>samples = 7<br/>value = [0, 0, 0 ... 0, 0, 0]>, fillcolor="#defbe8"] ;
547 -> 561 ;
562 [label=<x<SUB>2</SUB> &le; 1.5<br/>gini = 0.667<br/>samples = 3<br/>value = [0, 0, 0 ... 0, 0, 0]>, fillcolor="#ffffff"] ;
561 -> 562 ;
563 [label=<gini = 0.0<br/>samples = 1<br/>value = [0, 0, 0 ... 0, 0, 0]>, fillcolor="#39e586"] ;
562 -> 563 ;
564 [label=<x<SUB>3</SUB> &le; 3.5<br/>gini = 0.5<br/>samples = 2<br/>value = [0, 0, 0 ... 0, 0, 0]>, fillcolor="#ffffff"] ;
562 -> 564 ;
565 [label=<gini = 0.0<br/>samples = 1<br/>value = [0, 0, 0 ... 0, 0, 0]>, fillcolor="#e53f39"] ;
564 -> 565 ;
566 [label=<gini = 0.0<br/>samples = 1<br/>value = [0, 0, 0 ... 0, 0, 0]>, fillcolor="#39e54d"] ;
564 -> 566 ;
567 [label=<x<SUB>3</SUB> &le; 51.0<br/>gini = 0.625<br/>samples = 4<br/>value = [0, 0, 0 ... 0, 0, 0]>, fillcolor="#bdf6d1"] ;
561 -> 567 ;
568 [label=<x<SUB>2</SUB> &le; 1.5<br/>gini = 0.444<br/>samples = 3<br/>value = [0, 0, 0 ... 0, 0, 0]>, fillcolor="#9cf2ba"] ;
567 -> 568 ;
569 [label=<gini = 0.0<br/>samples = 1<br/>value = [0, 0, 0 ... 0, 0, 0]>, fillcolor="#39e575"] ;
568 -> 569 ;
570 [label=<x<SUB>3</SUB> &le; 3.5<br/>gini = 0.5<br/>samples = 2<br/>value = [0, 0, 0 ... 0, 0, 0]>, fillcolor="#ffffff"] ;
568 -> 570 ;
571 [label=<gini = 0.0<br/>samples = 1<br/>value = [0, 0, 0 ... 0, 0, 0]>, fillcolor="#cee539"] ;
570 -> 571 ;
572 [label=<gini = 0.0<br/>samples = 1<br/>value = [0, 0, 0 ... 0, 0, 0]>, fillcolor="#39e575"] ;
570 -> 572 ;
573 [label=<gini = 0.0<br/>samples = 1<br/>value = [0, 0, 0 ... 0, 0, 0]>, fillcolor="#e5ac39"] ;
567 -> 573 ;
574 [label=<x<SUB>5</SUB> &le; 2.5<br/>gini = 0.911<br/>samples = 13<br/>value = [0, 0, 0 ... 0, 0, 0]>, fillcolor="#f1fdee"] ;
116 -> 574 ;
575 [label=<x<SUB>8</SUB> &le; 0.082<br/>gini = 0.857<br/>samples = 7<br/>value = [0, 0, 0 ... 0, 0, 0]>, fillcolor="#ffffff"] ;
574 -> 575 ;
576 [label=<x<SUB>4</SUB> &le; 1.5<br/>gini = 0.75<br/>samples = 4<br/>value = [0, 0, 0 ... 0, 0, 0]>, fillcolor="#ffffff"] ;
575 -> 576 ;
577 [label=<gini = 0.0<br/>samples = 1<br/>value = [0, 0, 0 ... 0, 0, 0]>, fillcolor="#e5da39"] ;
576 -> 577 ;
578 [label=<x<SUB>3</SUB> &le; 2.0<br/>gini = 0.667<br/>samples = 3<br/>value = [0, 0, 0 ... 0, 0, 0]>, fillcolor="#ffffff"] ;
576 -> 578 ;
579 [label=<gini = 0.0<br/>samples = 1<br/>value = [0, 0, 0 ... 0, 0, 0]>, fillcolor="#e5a039"] ;
578 -> 579 ;
580 [label=<x<SUB>4</SUB> &le; 3.0<br/>gini = 0.5<br/>samples = 2<br/>value = [0, 0, 0 ... 0, 0, 0]>, fillcolor="#ffffff"] ;
578 -> 580 ;
581 [label=<gini = 0.0<br/>samples = 1<br/>value = [0, 0, 0 ... 0, 0, 0]>, fillcolor="#e58639"] ;
580 -> 581 ;
582 [label=<gini = 0.0<br/>samples = 1<br/>value = [0, 0, 0 ... 0, 0, 0]>, fillcolor="#e5b739"] ;
580 -> 582 ;
583 [label=<x<SUB>2</SUB> &le; 1.5<br/>gini = 0.667<br/>samples = 3<br/>value = [0, 0, 0 ... 0, 0, 0]>, fillcolor="#ffffff"] ;
575 -> 583 ;
584 [label=<x<SUB>3</SUB> &le; 3.5<br/>gini = 0.5<br/>samples = 2<br/>value = [0, 0, 0 ... 0, 0, 0]>, fillcolor="#ffffff"] ;
583 -> 584 ;
585 [label=<gini = 0.0<br/>samples = 1<br/>value = [0, 0, 0 ... 0, 0, 0]>, fillcolor="#e53995"] ;
584 -> 585 ;
586 [label=<gini = 0.0<br/>samples = 1<br/>value = [0, 0, 0 ... 0, 0, 0]>, fillcolor="#dce539"] ;
584 -> 586 ;
587 [label=<gini = 0.0<br/>samples = 1<br/>value = [0, 0, 0 ... 0, 0, 0]>, fillcolor="#e58639"] ;
583 -> 587 ;
588 [label=<x<SUB>4</SUB> &le; 3.5<br/>gini = 0.778<br/>samples = 6<br/>value = [0, 0, 0 ... 0, 0, 0]>, fillcolor="#defad7"] ;
574 -> 588 ;
589 [label=<x<SUB>3</SUB> &le; 3.5<br/>gini = 0.625<br/>samples = 4<br/>value = [0, 0, 0 ... 0, 0, 0]>, fillcolor="#c8f6bd"] ;
588 -> 589 ;
590 [label=<x<SUB>4</SUB> &le; 2.0<br/>gini = 0.444<br/>samples = 3<br/>value = [0, 0, 0 ... 0, 0, 0]>, fillcolor="#adf29c"] ;
589 -> 590 ;
591 [label=<gini = 0.0<br/>samples = 1<br/>value = [0, 0, 0 ... 0, 0, 0]>, fillcolor="#5be539"] ;
590 -> 591 ;
592 [label=<x<SUB>3</SUB> &le; 2.5<br/>gini = 0.5<br/>samples = 2<br/>value = [0, 0, 0 ... 0, 0, 0]>, fillcolor="#ffffff"] ;
590 -> 592 ;
593 [label=<gini = 0.0<br/>samples = 1<br/>value = [0, 0, 0 ... 0, 0, 0]>, fillcolor="#5be539"] ;
592 -> 593 ;
594 [label=<gini = 0.0<br/>samples = 1<br/>value = [0, 0, 0 ... 0, 0, 0]>, fillcolor="#39e56d"] ;
592 -> 594 ;
595 [label=<gini = 0.0<br/>samples = 1<br/>value = [0, 0, 0 ... 0, 0, 0]>, fillcolor="#e59539"] ;
589 -> 595 ;
596 [label=<x<SUB>18</SUB> &le; 0.14<br/>gini = 0.5<br/>samples = 2<br/>value = [0, 0, 0 ... 0, 0, 0]>, fillcolor="#ffffff"] ;
588 -> 596 ;
597 [label=<gini = 0.0<br/>samples = 1<br/>value = [0, 0, 0 ... 0, 0, 0]>, fillcolor="#e5b439"] ;
596 -> 597 ;
598 [label=<gini = 0.0<br/>samples = 1<br/>value = [0, 0, 0 ... 0, 0, 0]>, fillcolor="#e59239"] ;
596 -> 598 ;
599 [label=<x<SUB>22</SUB> &le; -1.399<br/>gini = 0.999<br/>samples = 1428<br/>value = [0, 0, 0 ... 0, 1, 0]>, fillcolor="#ffffff"] ;
115 -> 599 ;
600 [label=<x<SUB>3</SUB> &le; 1.5<br/>gini = 0.972<br/>samples = 36<br/>value = [0, 0, 0 ... 0, 0, 0]>, fillcolor="#ffffff"] ;
599 -> 600 ;
601 [label=<x<SUB>2</SUB> &le; 1.5<br/>gini = 0.889<br/>samples = 9<br/>value = [0, 0, 0 ... 0, 0, 0]>, fillcolor="#ffffff"] ;
600 -> 601 ;
602 [label=<x<SUB>4</SUB> &le; 2.5<br/>gini = 0.75<br/>samples = 4<br/>value = [0, 0, 0 ... 0, 0, 0]>, fillcolor="#ffffff"] ;
601 -> 602 ;
603 [label=<x<SUB>1</SUB> &le; 1.5<br/>gini = 0.5<br/>samples = 2<br/>value = [0, 0, 0 ... 0, 0, 0]>, fillcolor="#ffffff"] ;
602 -> 603 ;
604 [label=<gini = 0.0<br/>samples = 1<br/>value = [0, 0, 0 ... 0, 0, 0]>, fillcolor="#39e567"] ;
603 -> 604 ;
605 [label=<gini = 0.0<br/>samples = 1<br/>value = [0, 0, 0 ... 0, 0, 0]>, fillcolor="#39e5b4"] ;
603 -> 605 ;
606 [label=<x<SUB>4</SUB> &le; 4.5<br/>gini = 0.5<br/>samples = 2<br/>value = [0, 0, 0 ... 0, 0, 0]>, fillcolor="#ffffff"] ;
602 -> 606 ;
607 [label=<gini = 0.0<br/>samples = 1<br/>value = [0, 0, 0 ... 0, 0, 0]>, fillcolor="#5be539"] ;
606 -> 607 ;
608 [label=<gini = 0.0<br/>samples = 1<br/>value = [0, 0, 0 ... 0, 0, 0]>, fillcolor="#39e5c8"] ;
606 -> 608 ;
609 [label=<x<SUB>5</SUB> &le; 4.5<br/>gini = 0.8<br/>samples = 5<br/>value = [0, 0, 0 ... 0, 0, 0]>, fillcolor="#ffffff"] ;
601 -> 609 ;
610 [label=<x<SUB>1</SUB> &le; 1.5<br/>gini = 0.5<br/>samples = 2<br/>value = [0, 0, 0 ... 0, 0, 0]>, fillcolor="#ffffff"] ;
609 -> 610 ;
611 [label=<gini = 0.0<br/>samples = 1<br/>value = [0, 0, 0 ... 0, 0, 0]>, fillcolor="#39e539"] ;
610 -> 611 ;
612 [label=<gini = 0.0<br/>samples = 1<br/>value = [0, 0, 0 ... 0, 0, 0]>, fillcolor="#e59839"] ;
610 -> 612 ;
613 [label=<x<SUB>4</SUB> &le; 2.5<br/>gini = 0.667<br/>samples = 3<br/>value = [0, 0, 0 ... 0, 0, 0]>, fillcolor="#ffffff"] ;
609 -> 613 ;
614 [label=<x<SUB>1</SUB> &le; 1.5<br/>gini = 0.5<br/>samples = 2<br/>value = [0, 0, 0 ... 0, 0, 0]>, fillcolor="#ffffff"] ;
613 -> 614 ;
615 [label=<gini = 0.0<br/>samples = 1<br/>value = [0, 0, 0 ... 0, 0, 0]>, fillcolor="#e59239"] ;
614 -> 615 ;
616 [label=<gini = 0.0<br/>samples = 1<br/>value = [0, 0, 0 ... 0, 0, 0]>, fillcolor="#39e57b"] ;
614 -> 616 ;
617 [label=<gini = 0.0<br/>samples = 1<br/>value = [0, 0, 0 ... 0, 0, 0]>, fillcolor="#98e539"] ;
613 -> 617 ;
618 [label=<x<SUB>2</SUB> &le; 1.5<br/>gini = 0.963<br/>samples = 27<br/>value = [0, 0, 0 ... 0, 0, 0]>, fillcolor="#ffffff"] ;
600 -> 618 ;
619 [label=<x<SUB>3</SUB> &le; 2.5<br/>gini = 0.929<br/>samples = 14<br/>value = [0, 0, 0 ... 0, 0, 0]>, fillcolor="#ffffff"] ;
618 -> 619 ;
620 [label=<x<SUB>4</SUB> &le; 1.5<br/>gini = 0.857<br/>samples = 7<br/>value = [0, 0, 0 ... 0, 0, 0]>, fillcolor="#ffffff"] ;
619 -> 620 ;
621 [label=<x<SUB>5</SUB> &le; 18.5<br/>gini = 0.5<br/>samples = 2<br/>value = [0, 0, 0 ... 0, 0, 0]>, fillcolor="#ffffff"] ;
620 -> 621 ;
622 [label=<gini = 0.0<br/>samples = 1<br/>value = [0, 0, 0 ... 0, 0, 0]>, fillcolor="#a3e539"] ;
621 -> 622 ;
623 [label=<gini = 0.0<br/>samples = 1<br/>value = [0, 0, 0 ... 0, 0, 0]>, fillcolor="#58e539"] ;
621 -> 623 ;
624 [label=<x<SUB>4</SUB> &le; 2.5<br/>gini = 0.8<br/>samples = 5<br/>value = [0, 0, 0 ... 0, 0, 0]>, fillcolor="#ffffff"] ;
620 -> 624 ;
625 [label=<gini = 0.0<br/>samples = 1<br/>value = [0, 0, 0 ... 0, 0, 0]>, fillcolor="#b4e539"] ;
624 -> 625 ;
626 [label=<x<SUB>4</SUB> &le; 3.5<br/>gini = 0.75<br/>samples = 4<br/>value = [0, 0, 0 ... 0, 0, 0]>, fillcolor="#ffffff"] ;
624 -> 626 ;
627 [label=<x<SUB>1</SUB> &le; 1.5<br/>gini = 0.5<br/>samples = 2<br/>value = [0, 0, 0 ... 0, 0, 0]>, fillcolor="#ffffff"] ;
626 -> 627 ;
628 [label=<gini = 0.0<br/>samples = 1<br/>value = [0, 0, 0 ... 0, 0, 0]>, fillcolor="#39e56a"] ;
627 -> 628 ;
629 [label=<gini = 0.0<br/>samples = 1<br/>value = [0, 0, 0 ... 0, 0, 0]>, fillcolor="#e5a939"] ;
627 -> 629 ;
630 [label=<x<SUB>5</SUB> &le; 11.5<br/>gini = 0.5<br/>samples = 2<br/>value = [0, 0, 0 ... 0, 0, 0]>, fillcolor="#ffffff"] ;
626 -> 630 ;
631 [label=<gini = 0.0<br/>samples = 1<br/>value = [0, 0, 0 ... 0, 0, 0]>, fillcolor="#3989e5"] ;
630 -> 631 ;
632 [label=<gini = 0.0<br/>samples = 1<br/>value = [0, 0, 0 ... 0, 0, 0]>, fillcolor="#39e544"] ;
630 -> 632 ;
633 [label=<x<SUB>3</SUB> &le; 50.5<br/>gini = 0.857<br/>samples = 7<br/>value = [0, 0, 0 ... 0, 0, 0]>, fillcolor="#ffffff"] ;
619 -> 633 ;
634 [label=<x<SUB>5</SUB> &le; 5.0<br/>gini = 0.8<br/>samples = 5<br/>value = [0, 0, 0 ... 0, 0, 0]>, fillcolor="#ffffff"] ;
633 -> 634 ;
635 [label=<gini = 0.0<br/>samples = 1<br/>value = [0, 0, 0 ... 0, 0, 0]>, fillcolor="#7b39e5"] ;
634 -> 635 ;
636 [label=<x<SUB>4</SUB> &le; 2.5<br/>gini = 0.75<br/>samples = 4<br/>value = [0, 0, 0 ... 0, 0, 0]>, fillcolor="#ffffff"] ;
634 -> 636 ;
637 [label=<x<SUB>5</SUB> &le; 14.0<br/>gini = 0.5<br/>samples = 2<br/>value = [0, 0, 0 ... 0, 0, 0]>, fillcolor="#ffffff"] ;
636 -> 637 ;
638 [label=<gini = 0.0<br/>samples = 1<br/>value = [0, 0, 0 ... 0, 0, 0]>, fillcolor="#64e539"] ;
637 -> 638 ;
639 [label=<gini = 0.0<br/>samples = 1<br/>value = [0, 0, 0 ... 0, 0, 0]>, fillcolor="#9ae539"] ;
637 -> 639 ;
640 [label=<x<SUB>1</SUB> &le; 1.5<br/>gini = 0.5<br/>samples = 2<br/>value = [0, 0, 0 ... 0, 0, 0]>, fillcolor="#ffffff"] ;
636 -> 640 ;
641 [label=<gini = 0.0<br/>samples = 1<br/>value = [0, 0, 0 ... 0, 0, 0]>, fillcolor="#5839e5"] ;
640 -> 641 ;
642 [label=<gini = 0.0<br/>samples = 1<br/>value = [0, 0, 0 ... 0, 0, 0]>, fillcolor="#39e5da"] ;
640 -> 642 ;
643 [label=<x<SUB>5</SUB> &le; 11.0<br/>gini = 0.5<br/>samples = 2<br/>value = [0, 0, 0 ... 0, 0, 0]>, fillcolor="#ffffff"] ;
633 -> 643 ;
644 [label=<gini = 0.0<br/>samples = 1<br/>value = [0, 0, 0 ... 0, 0, 0]>, fillcolor="#d7e539"] ;
643 -> 644 ;
645 [label=<gini = 0.0<br/>samples = 1<br/>value = [0, 0, 0 ... 0, 0, 0]>, fillcolor="#dfe539"] ;
643 -> 645 ;
646 [label=<x<SUB>3</SUB> &le; 2.5<br/>gini = 0.923<br/>samples = 13<br/>value = [0, 0, 0 ... 0, 0, 0]>, fillcolor="#ffffff"] ;
618 -> 646 ;
647 [label=<x<SUB>1</SUB> &le; 1.5<br/>gini = 0.833<br/>samples = 6<br/>value = [0, 0, 0 ... 0, 0, 0]>, fillcolor="#ffffff"] ;
646 -> 647 ;
648 [label=<x<SUB>5</SUB> &le; 7.5<br/>gini = 0.75<br/>samples = 4<br/>value = [0, 0, 0 ... 0, 0, 0]>, fillcolor="#ffffff"] ;
647 -> 648 ;
649 [label=<gini = 0.0<br/>samples = 1<br/>value = [0, 0, 0 ... 0, 0, 0]>, fillcolor="#e5398f"] ;
648 -> 649 ;
650 [label=<x<SUB>5</SUB> &le; 9.0<br/>gini = 0.667<br/>samples = 3<br/>value = [0, 0, 0 ... 0, 0, 0]>, fillcolor="#ffffff"] ;
648 -> 650 ;
651 [label=<gini = 0.0<br/>samples = 1<br/>value = [0, 0, 0 ... 0, 0, 0]>, fillcolor="#3ce539"] ;
650 -> 651 ;
652 [label=<x<SUB>5</SUB> &le; 21.0<br/>gini = 0.5<br/>samples = 2<br/>value = [0, 0, 0 ... 0, 0, 0]>, fillcolor="#ffffff"] ;
650 -> 652 ;
653 [label=<gini = 0.0<br/>samples = 1<br/>value = [0, 0, 0 ... 0, 0, 0]>, fillcolor="#39e558"] ;
652 -> 653 ;
654 [label=<gini = 0.0<br/>samples = 1<br/>value = [0, 0, 0 ... 0, 0, 0]>, fillcolor="#dce539"] ;
652 -> 654 ;
655 [label=<x<SUB>5</SUB> &le; 6.0<br/>gini = 0.5<br/>samples = 2<br/>value = [0, 0, 0 ... 0, 0, 0]>, fillcolor="#ffffff"] ;
647 -> 655 ;
656 [label=<gini = 0.0<br/>samples = 1<br/>value = [0, 0, 0 ... 0, 0, 0]>, fillcolor="#e5ba39"] ;
655 -> 656 ;
657 [label=<gini = 0.0<br/>samples = 1<br/>value = [0, 0, 0 ... 0, 0, 0]>, fillcolor="#72e539"] ;
655 -> 657 ;
658 [label=<x<SUB>1</SUB> &le; 1.5<br/>gini = 0.857<br/>samples = 7<br/>value = [0, 0, 0 ... 0, 0, 0]>, fillcolor="#ffffff"] ;
646 -> 658 ;
659 [label=<x<SUB>4</SUB> &le; 1.5<br/>gini = 0.8<br/>samples = 5<br/>value = [0, 0, 0 ... 0, 0, 0]>, fillcolor="#ffffff"] ;
658 -> 659 ;
660 [label=<x<SUB>3</SUB> &le; 50.5<br/>gini = 0.5<br/>samples = 2<br/>value = [0, 0, 0 ... 0, 0, 0]>, fillcolor="#ffffff"] ;
659 -> 660 ;
661 [label=<gini = 0.0<br/>samples = 1<br/>value = [0, 0, 0 ... 0, 0, 0]>, fillcolor="#398ce5"] ;
660 -> 661 ;
662 [label=<gini = 0.0<br/>samples = 1<br/>value = [0, 0, 0 ... 0, 0, 0]>, fillcolor="#e5ae39"] ;
660 -> 662 ;
663 [label=<x<SUB>4</SUB> &le; 2.5<br/>gini = 0.667<br/>samples = 3<br/>value = [0, 0, 0 ... 0, 0, 0]>, fillcolor="#ffffff"] ;
659 -> 663 ;
664 [label=<x<SUB>3</SUB> &le; 3.5<br/>gini = 0.5<br/>samples = 2<br/>value = [0, 0, 0 ... 0, 0, 0]>, fillcolor="#ffffff"] ;
663 -> 664 ;
665 [label=<gini = 0.0<br/>samples = 1<br/>value = [0, 0, 0 ... 0, 0, 0]>, fillcolor="#39e5c8"] ;
664 -> 665 ;
666 [label=<gini = 0.0<br/>samples = 1<br/>value = [0, 0, 0 ... 0, 0, 0]>, fillcolor="#39e58c"] ;
664 -> 666 ;
667 [label=<gini = 0.0<br/>samples = 1<br/>value = [0, 0, 0 ... 0, 0, 0]>, fillcolor="#da39e5"] ;
663 -> 667 ;
668 [label=<x<SUB>3</SUB> &le; 50.5<br/>gini = 0.5<br/>samples = 2<br/>value = [0, 0, 0 ... 0, 0, 0]>, fillcolor="#ffffff"] ;
658 -> 668 ;
669 [label=<gini = 0.0<br/>samples = 1<br/>value = [0, 0, 0 ... 0, 0, 0]>, fillcolor="#39e5c0"] ;
668 -> 669 ;
670 [label=<gini = 0.0<br/>samples = 1<br/>value = [0, 0, 0 ... 0, 0, 0]>, fillcolor="#39e589"] ;
668 -> 670 ;
671 [label=<x<SUB>15</SUB> &le; -2.226<br/>gini = 0.999<br/>samples = 1392<br/>value = [0, 0, 0 ... 0, 1, 0]>, fillcolor="#ffffff"] ;
599 -> 671 ;
672 [label=<x<SUB>2</SUB> &le; 1.5<br/>gini = 0.979<br/>samples = 48<br/>value = [0, 0, 0 ... 0, 0, 0]>, fillcolor="#ffffff"] ;
671 -> 672 ;
673 [label=<x<SUB>1</SUB> &le; 1.5<br/>gini = 0.955<br/>samples = 22<br/>value = [0, 0, 0 ... 0, 0, 0]>, fillcolor="#ffffff"] ;
672 -> 673 ;
674 [label=<x<SUB>5</SUB> &le; 4.5<br/>gini = 0.909<br/>samples = 11<br/>value = [0, 0, 0 ... 0, 0, 0]>, fillcolor="#ffffff"] ;
673 -> 674 ;
675 [label=<x<SUB>3</SUB> &le; 2.0<br/>gini = 0.5<br/>samples = 2<br/>value = [0, 0, 0 ... 0, 0, 0]>, fillcolor="#ffffff"] ;
674 -> 675 ;
676 [label=<gini = 0.0<br/>samples = 1<br/>value = [0, 0, 0 ... 0, 0, 0]>, fillcolor="#6de539"] ;
675 -> 676 ;
677 [label=<gini = 0.0<br/>samples = 1<br/>value = [0, 0, 0 ... 0, 0, 0]>, fillcolor="#9239e5"] ;
675 -> 677 ;
678 [label=<x<SUB>3</SUB> &le; 1.5<br/>gini = 0.889<br/>samples = 9<br/>value = [0, 0, 0 ... 0, 0, 0]>, fillcolor="#ffffff"] ;
674 -> 678 ;
679 [label=<gini = 0.0<br/>samples = 1<br/>value = [0, 0, 0 ... 0, 0, 0]>, fillcolor="#e5df39"] ;
678 -> 679 ;
680 [label=<x<SUB>5</SUB> &le; 6.0<br/>gini = 0.875<br/>samples = 8<br/>value = [0, 0, 0 ... 0, 0, 0]>, fillcolor="#ffffff"] ;
678 -> 680 ;
681 [label=<gini = 0.0<br/>samples = 1<br/>value = [0, 0, 0 ... 0, 0, 0]>, fillcolor="#e5dc39"] ;
680 -> 681 ;
682 [label=<x<SUB>5</SUB> &le; 9.0<br/>gini = 0.857<br/>samples = 7<br/>value = [0, 0, 0 ... 0, 0, 0]>, fillcolor="#ffffff"] ;
680 -> 682 ;
683 [label=<x<SUB>3</SUB> &le; 2.5<br/>gini = 0.5<br/>samples = 2<br/>value = [0, 0, 0 ... 0, 0, 0]>, fillcolor="#ffffff"] ;
682 -> 683 ;
684 [label=<gini = 0.0<br/>samples = 1<br/>value = [0, 0, 0 ... 0, 0, 0]>, fillcolor="#e5e539"] ;
683 -> 684 ;
685 [label=<gini = 0.0<br/>samples = 1<br/>value = [0, 0, 0 ... 0, 0, 0]>, fillcolor="#e55b39"] ;
683 -> 685 ;
686 [label=<x<SUB>4</SUB> &le; 1.5<br/>gini = 0.8<br/>samples = 5<br/>value = [0, 0, 0 ... 0, 0, 0]>, fillcolor="#ffffff"] ;
682 -> 686 ;
687 [label=<gini = 0.0<br/>samples = 1<br/>value = [0, 0, 0 ... 0, 0, 0]>, fillcolor="#86e539"] ;
686 -> 687 ;
688 [label=<x<SUB>5</SUB> &le; 11.5<br/>gini = 0.75<br/>samples = 4<br/>value = [0, 0, 0 ... 0, 0, 0]>, fillcolor="#ffffff"] ;
686 -> 688 ;
689 [label=<gini = 0.0<br/>samples = 1<br/>value = [0, 0, 0 ... 0, 0, 0]>, fillcolor="#e54439"] ;
688 -> 689 ;
690 [label=<x<SUB>5</SUB> &le; 14.0<br/>gini = 0.667<br/>samples = 3<br/>value = [0, 0, 0 ... 0, 0, 0]>, fillcolor="#ffffff"] ;
688 -> 690 ;
691 [label=<gini = 0.0<br/>samples = 1<br/>value = [0, 0, 0 ... 0, 0, 0]>, fillcolor="#6739e5"] ;
690 -> 691 ;
692 [label=<x<SUB>4</SUB> &le; 3.0<br/>gini = 0.5<br/>samples = 2<br/>value = [0, 0, 0 ... 0, 0, 0]>, fillcolor="#ffffff"] ;
690 -> 692 ;
693 [label=<gini = 0.0<br/>samples = 1<br/>value = [0, 0, 0 ... 0, 0, 0]>, fillcolor="#e539b7"] ;
692 -> 693 ;
694 [label=<gini = 0.0<br/>samples = 1<br/>value = [0, 0, 0 ... 0, 0, 0]>, fillcolor="#39aee5"] ;
692 -> 694 ;
695 [label=<x<SUB>3</SUB> &le; 1.5<br/>gini = 0.909<br/>samples = 11<br/>value = [0, 0, 0 ... 0, 0, 0]>, fillcolor="#ffffff"] ;
673 -> 695 ;
696 [label=<x<SUB>5</SUB> &le; 5.5<br/>gini = 0.8<br/>samples = 5<br/>value = [0, 0, 0 ... 0, 0, 0]>, fillcolor="#ffffff"] ;
695 -> 696 ;
697 [label=<gini = 0.0<br/>samples = 1<br/>value = [0, 0, 0 ... 0, 0, 0]>, fillcolor="#e58339"] ;
696 -> 697 ;
698 [label=<x<SUB>4</SUB> &le; 2.0<br/>gini = 0.75<br/>samples = 4<br/>value = [0, 0, 0 ... 0, 0, 0]>, fillcolor="#ffffff"] ;
696 -> 698 ;
699 [label=<gini = 0.0<br/>samples = 1<br/>value = [0, 0, 0 ... 0, 0, 0]>, fillcolor="#e58c39"] ;
698 -> 699 ;
700 [label=<x<SUB>5</SUB> &le; 8.0<br/>gini = 0.667<br/>samples = 3<br/>value = [0, 0, 0 ... 0, 0, 0]>, fillcolor="#ffffff"] ;
698 -> 700 ;
701 [label=<x<SUB>4</SUB> &le; 3.5<br/>gini = 0.5<br/>samples = 2<br/>value = [0, 0, 0 ... 0, 0, 0]>, fillcolor="#ffffff"] ;
700 -> 701 ;
702 [label=<gini = 0.0<br/>samples = 1<br/>value = [0, 0, 0 ... 0, 0, 0]>, fillcolor="#e5b439"] ;
701 -> 702 ;
703 [label=<gini = 0.0<br/>samples = 1<br/>value = [0, 0, 0 ... 0, 0, 0]>, fillcolor="#39e2e5"] ;
701 -> 703 ;
704 [label=<gini = 0.0<br/>samples = 1<br/>value = [0, 0, 0 ... 0, 0, 0]>, fillcolor="#e5a039"] ;
700 -> 704 ;
705 [label=<x<SUB>3</SUB> &le; 2.5<br/>gini = 0.833<br/>samples = 6<br/>value = [0, 0, 0 ... 0, 0, 0]>, fillcolor="#ffffff"] ;
695 -> 705 ;
706 [label=<x<SUB>5</SUB> &le; 11.0<br/>gini = 0.667<br/>samples = 3<br/>value = [0, 0, 0 ... 0, 0, 0]>, fillcolor="#ffffff"] ;
705 -> 706 ;
707 [label=<gini = 0.0<br/>samples = 1<br/>value = [0, 0, 0 ... 0, 0, 0]>, fillcolor="#e5a039"] ;
706 -> 707 ;
708 [label=<x<SUB>4</SUB> &le; 2.5<br/>gini = 0.5<br/>samples = 2<br/>value = [0, 0, 0 ... 0, 0, 0]>, fillcolor="#ffffff"] ;
706 -> 708 ;
709 [label=<gini = 0.0<br/>samples = 1<br/>value = [0, 0, 0 ... 0, 0, 0]>, fillcolor="#61e539"] ;
708 -> 709 ;
710 [label=<gini = 0.0<br/>samples = 1<br/>value = [0, 0, 0 ... 0, 0, 0]>, fillcolor="#a9e539"] ;
708 -> 710 ;
711 [label=<x<SUB>4</SUB> &le; 2.0<br/>gini = 0.667<br/>samples = 3<br/>value = [0, 0, 0 ... 0, 0, 0]>, fillcolor="#ffffff"] ;
705 -> 711 ;
712 [label=<gini = 0.0<br/>samples = 1<br/>value = [0, 0, 0 ... 0, 0, 0]>, fillcolor="#e5d439"] ;
711 -> 712 ;
713 [label=<x<SUB>4</SUB> &le; 4.0<br/>gini = 0.5<br/>samples = 2<br/>value = [0, 0, 0 ... 0, 0, 0]>, fillcolor="#ffffff"] ;
711 -> 713 ;
714 [label=<gini = 0.0<br/>samples = 1<br/>value = [0, 0, 0 ... 0, 0, 0]>, fillcolor="#81e539"] ;
713 -> 714 ;
715 [label=<gini = 0.0<br/>samples = 1<br/>value = [0, 0, 0 ... 0, 0, 0]>, fillcolor="#d139e5"] ;
713 -> 715 ;
716 [label=<x<SUB>5</SUB> &le; 4.5<br/>gini = 0.962<br/>samples = 26<br/>value = [0, 0, 0 ... 0, 0, 0]>, fillcolor="#ffffff"] ;
672 -> 716 ;
717 [label=<x<SUB>4</SUB> &le; 3.5<br/>gini = 0.667<br/>samples = 3<br/>value = [0, 0, 0 ... 0, 0, 0]>, fillcolor="#ffffff"] ;
716 -> 717 ;
718 [label=<gini = 0.0<br/>samples = 1<br/>value = [0, 0, 0 ... 0, 0, 0]>, fillcolor="#bde539"] ;
717 -> 718 ;
719 [label=<x<SUB>3</SUB> &le; 2.5<br/>gini = 0.5<br/>samples = 2<br/>value = [0, 0, 0 ... 0, 0, 0]>, fillcolor="#ffffff"] ;
717 -> 719 ;
720 [label=<gini = 0.0<br/>samples = 1<br/>value = [0, 0, 0 ... 0, 0, 0]>, fillcolor="#39e5dc"] ;
719 -> 720 ;
721 [label=<gini = 0.0<br/>samples = 1<br/>value = [0, 0, 0 ... 0, 0, 0]>, fillcolor="#e53989"] ;
719 -> 721 ;
722 [label=<x<SUB>4</SUB> &le; 1.5<br/>gini = 0.957<br/>samples = 23<br/>value = [0, 0, 0 ... 0, 0, 0]>, fillcolor="#ffffff"] ;
716 -> 722 ;
723 [label=<x<SUB>5</SUB> &le; 7.5<br/>gini = 0.833<br/>samples = 6<br/>value = [0, 0, 0 ... 0, 0, 0]>, fillcolor="#ffffff"] ;
722 -> 723 ;
724 [label=<gini = 0.0<br/>samples = 1<br/>value = [0, 0, 0 ... 0, 0, 0]>, fillcolor="#e5d439"] ;
723 -> 724 ;
725 [label=<x<SUB>1</SUB> &le; 1.5<br/>gini = 0.8<br/>samples = 5<br/>value = [0, 0, 0 ... 0, 0, 0]>, fillcolor="#ffffff"] ;
723 -> 725 ;
726 [label=<x<SUB>5</SUB> &le; 15.0<br/>gini = 0.667<br/>samples = 3<br/>value = [0, 0, 0 ... 0, 0, 0]>, fillcolor="#ffffff"] ;
725 -> 726 ;
727 [label=<x<SUB>3</SUB> &le; 49.5<br/>gini = 0.5<br/>samples = 2<br/>value = [0, 0, 0 ... 0, 0, 0]>, fillcolor="#ffffff"] ;
726 -> 727 ;
728 [label=<gini = 0.0<br/>samples = 1<br/>value = [0, 0, 0 ... 0, 0, 0]>, fillcolor="#c5e539"] ;
727 -> 728 ;
729 [label=<gini = 0.0<br/>samples = 1<br/>value = [0, 0, 0 ... 0, 0, 0]>, fillcolor="#c3e539"] ;
727 -> 729 ;
730 [label=<gini = 0.0<br/>samples = 1<br/>value = [0, 0, 0 ... 0, 0, 0]>, fillcolor="#4ae539"] ;
726 -> 730 ;
731 [label=<x<SUB>3</SUB> &le; 2.5<br/>gini = 0.5<br/>samples = 2<br/>value = [0, 0, 0 ... 0, 0, 0]>, fillcolor="#ffffff"] ;
725 -> 731 ;
732 [label=<gini = 0.0<br/>samples = 1<br/>value = [0, 0, 0 ... 0, 0, 0]>, fillcolor="#e5ae39"] ;
731 -> 732 ;
733 [label=<gini = 0.0<br/>samples = 1<br/>value = [0, 0, 0 ... 0, 0, 0]>, fillcolor="#a3e539"] ;
731 -> 733 ;
734 [label=<x<SUB>3</SUB> &le; 1.5<br/>gini = 0.941<br/>samples = 17<br/>value = [0, 0, 0 ... 0, 0, 0]>, fillcolor="#ffffff"] ;
722 -> 734 ;
735 [label=<x<SUB>4</SUB> &le; 4.5<br/>gini = 0.667<br/>samples = 3<br/>value = [0, 0, 0 ... 0, 0, 0]>, fillcolor="#ffffff"] ;
734 -> 735 ;
736 [label=<gini = 0.0<br/>samples = 1<br/>value = [0, 0, 0 ... 0, 0, 0]>, fillcolor="#dae539"] ;
735 -> 736 ;
737 [label=<x<SUB>5</SUB> &le; 8.5<br/>gini = 0.5<br/>samples = 2<br/>value = [0, 0, 0 ... 0, 0, 0]>, fillcolor="#ffffff"] ;
735 -> 737 ;
738 [label=<gini = 0.0<br/>samples = 1<br/>value = [0, 0, 0 ... 0, 0, 0]>, fillcolor="#d4e539"] ;
737 -> 738 ;
739 [label=<gini = 0.0<br/>samples = 1<br/>value = [0, 0, 0 ... 0, 0, 0]>, fillcolor="#39e54d"] ;
737 -> 739 ;
740 [label=<x<SUB>3</SUB> &le; 2.5<br/>gini = 0.929<br/>samples = 14<br/>value = [0, 0, 0 ... 0, 0, 0]>, fillcolor="#ffffff"] ;
734 -> 740 ;
741 [label=<x<SUB>5</SUB> &le; 10.0<br/>gini = 0.75<br/>samples = 4<br/>value = [0, 0, 0 ... 0, 0, 0]>, fillcolor="#ffffff"] ;
740 -> 741 ;
742 [label=<gini = 0.0<br/>samples = 1<br/>value = [0, 0, 0 ... 0, 0, 0]>, fillcolor="#e5d739"] ;
741 -> 742 ;
743 [label=<x<SUB>4</SUB> &le; 3.0<br/>gini = 0.667<br/>samples = 3<br/>value = [0, 0, 0 ... 0, 0, 0]>, fillcolor="#ffffff"] ;
741 -> 743 ;
744 [label=<x<SUB>5</SUB> &le; 13.5<br/>gini = 0.5<br/>samples = 2<br/>value = [0, 0, 0 ... 0, 0, 0]>, fillcolor="#ffffff"] ;
743 -> 744 ;
745 [label=<gini = 0.0<br/>samples = 1<br/>value = [0, 0, 0 ... 0, 0, 0]>, fillcolor="#e5c339"] ;
744 -> 745 ;
746 [label=<gini = 0.0<br/>samples = 1<br/>value = [0, 0, 0 ... 0, 0, 0]>, fillcolor="#e58c39"] ;
744 -> 746 ;
747 [label=<gini = 0.0<br/>samples = 1<br/>value = [0, 0, 0 ... 0, 0, 0]>, fillcolor="#395be5"] ;
743 -> 747 ;
748 [label=<x<SUB>4</SUB> &le; 2.5<br/>gini = 0.9<br/>samples = 10<br/>value = [0, 0, 0 ... 0, 0, 0]>, fillcolor="#ffffff"] ;
740 -> 748 ;
749 [label=<x<SUB>5</SUB> &le; 15.5<br/>gini = 0.667<br/>samples = 3<br/>value = [0, 0, 0 ... 0, 0, 0]>, fillcolor="#ffffff"] ;
748 -> 749 ;
750 [label=<gini = 0.0<br/>samples = 1<br/>value = [0, 0, 0 ... 0, 0, 0]>, fillcolor="#6139e5"] ;
749 -> 750 ;
751 [label=<x<SUB>5</SUB> &le; 26.0<br/>gini = 0.5<br/>samples = 2<br/>value = [0, 0, 0 ... 0, 0, 0]>, fillcolor="#ffffff"] ;
749 -> 751 ;
752 [label=<gini = 0.0<br/>samples = 1<br/>value = [0, 0, 0 ... 0, 0, 0]>, fillcolor="#a6e539"] ;
751 -> 752 ;
753 [label=<gini = 0.0<br/>samples = 1<br/>value = [0, 0, 0 ... 0, 0, 0]>, fillcolor="#39c3e5"] ;
751 -> 753 ;
754 [label=<x<SUB>3</SUB> &le; 3.5<br/>gini = 0.857<br/>samples = 7<br/>value = [0, 0, 0 ... 0, 0, 0]>, fillcolor="#ffffff"] ;
748 -> 754 ;
755 [label=<x<SUB>5</SUB> &le; 7.5<br/>gini = 0.667<br/>samples = 3<br/>value = [0, 0, 0 ... 0, 0, 0]>, fillcolor="#ffffff"] ;
754 -> 755 ;
756 [label=<x<SUB>1</SUB> &le; 1.5<br/>gini = 0.5<br/>samples = 2<br/>value = [0, 0, 0 ... 0, 0, 0]>, fillcolor="#ffffff"] ;
755 -> 756 ;
757 [label=<gini = 0.0<br/>samples = 1<br/>value = [0, 0, 0 ... 0, 0, 0]>, fillcolor="#9d39e5"] ;
756 -> 757 ;
758 [label=<gini = 0.0<br/>samples = 1<br/>value = [0, 0, 0 ... 0, 0, 0]>, fillcolor="#a339e5"] ;
756 -> 758 ;
759 [label=<gini = 0.0<br/>samples = 1<br/>value = [0, 0, 0 ... 0, 0, 0]>, fillcolor="#39e539"] ;
755 -> 759 ;
760 [label=<x<SUB>4</SUB> &le; 3.5<br/>gini = 0.75<br/>samples = 4<br/>value = [0, 0, 0 ... 0, 0, 0]>, fillcolor="#ffffff"] ;
754 -> 760 ;
761 [label=<x<SUB>1</SUB> &le; 1.5<br/>gini = 0.5<br/>samples = 2<br/>value = [0, 0, 0 ... 0, 0, 0]>, fillcolor="#ffffff"] ;
760 -> 761 ;
762 [label=<gini = 0.0<br/>samples = 1<br/>value = [0, 0, 0 ... 0, 0, 0]>, fillcolor="#39e56f"] ;
761 -> 762 ;
763 [label=<gini = 0.0<br/>samples = 1<br/>value = [0, 0, 0 ... 0, 0, 0]>, fillcolor="#b739e5"] ;
761 -> 763 ;
764 [label=<x<SUB>1</SUB> &le; 1.5<br/>gini = 0.5<br/>samples = 2<br/>value = [0, 0, 0 ... 0, 0, 0]>, fillcolor="#ffffff"] ;
760 -> 764 ;
765 [label=<gini = 0.0<br/>samples = 1<br/>value = [0, 0, 0 ... 0, 0, 0]>, fillcolor="#e55e39"] ;
764 -> 765 ;
766 [label=<gini = 0.0<br/>samples = 1<br/>value = [0, 0, 0 ... 0, 0, 0]>, fillcolor="#3989e5"] ;
764 -> 766 ;
767 [label=<x<SUB>31</SUB> &le; -0.945<br/>gini = 0.999<br/>samples = 1344<br/>value = [0, 0, 0 ... 0, 1, 0]>, fillcolor="#ffffff"] ;
671 -> 767 ;
768 [label=<x<SUB>4</SUB> &le; 1.5<br/>gini = 0.981<br/>samples = 53<br/>value = [0, 0, 0 ... 0, 0, 0]>, fillcolor="#ffffff"] ;
767 -> 768 ;
769 [label=<x<SUB>1</SUB> &le; 1.5<br/>gini = 0.929<br/>samples = 14<br/>value = [0, 0, 0 ... 0, 0, 0]>, fillcolor="#ffffff"] ;
768 -> 769 ;
770 [label=<x<SUB>2</SUB> &le; 1.5<br/>gini = 0.875<br/>samples = 8<br/>value = [0, 0, 0 ... 0, 0, 0]>, fillcolor="#ffffff"] ;
769 -> 770 ;
771 [label=<x<SUB>5</SUB> &le; 9.0<br/>gini = 0.75<br/>samples = 4<br/>value = [0, 0, 0 ... 0, 0, 0]>, fillcolor="#ffffff"] ;
770 -> 771 ;
772 [label=<gini = 0.0<br/>samples = 1<br/>value = [0, 0, 0 ... 0, 0, 0]>, fillcolor="#e53944"] ;
771 -> 772 ;
773 [label=<x<SUB>3</SUB> &le; 1.5<br/>gini = 0.667<br/>samples = 3<br/>value = [0, 0, 0 ... 0, 0, 0]>, fillcolor="#ffffff"] ;
771 -> 773 ;
774 [label=<gini = 0.0<br/>samples = 1<br/>value = [0, 0, 0 ... 0, 0, 0]>, fillcolor="#4139e5"] ;
773 -> 774 ;
775 [label=<x<SUB>3</SUB> &le; 50.0<br/>gini = 0.5<br/>samples = 2<br/>value = [0, 0, 0 ... 0, 0, 0]>, fillcolor="#ffffff"] ;
773 -> 775 ;
776 [label=<gini = 0.0<br/>samples = 1<br/>value = [0, 0, 0 ... 0, 0, 0]>, fillcolor="#7839e5"] ;
775 -> 776 ;
777 [label=<gini = 0.0<br/>samples = 1<br/>value = [0, 0, 0 ... 0, 0, 0]>, fillcolor="#e539dc"] ;
775 -> 777 ;
778 [label=<x<SUB>5</SUB> &le; 5.0<br/>gini = 0.75<br/>samples = 4<br/>value = [0, 0, 0 ... 0, 0, 0]>, fillcolor="#ffffff"] ;
770 -> 778 ;
779 [label=<gini = 0.0<br/>samples = 1<br/>value = [0, 0, 0 ... 0, 0, 0]>, fillcolor="#39e53c"] ;
778 -> 779 ;
780 [label=<x<SUB>3</SUB> &le; 2.5<br/>gini = 0.667<br/>samples = 3<br/>value = [0, 0, 0 ... 0, 0, 0]>, fillcolor="#ffffff"] ;
778 -> 780 ;
781 [label=<gini = 0.0<br/>samples = 1<br/>value = [0, 0, 0 ... 0, 0, 0]>, fillcolor="#a639e5"] ;
780 -> 781 ;
782 [label=<x<SUB>3</SUB> &le; 50.5<br/>gini = 0.5<br/>samples = 2<br/>value = [0, 0, 0 ... 0, 0, 0]>, fillcolor="#ffffff"] ;
780 -> 782 ;
783 [label=<gini = 0.0<br/>samples = 1<br/>value = [0, 0, 0 ... 0, 0, 0]>, fillcolor="#4739e5"] ;
782 -> 783 ;
784 [label=<gini = 0.0<br/>samples = 1<br/>value = [0, 0, 0 ... 0, 0, 0]>, fillcolor="#e5399a"] ;
782 -> 784 ;
785 [label=<x<SUB>2</SUB> &le; 1.5<br/>gini = 0.833<br/>samples = 6<br/>value = [0, 0, 0 ... 0, 0, 0]>, fillcolor="#ffffff"] ;
769 -> 785 ;
786 [label=<x<SUB>3</SUB> &le; 2.0<br/>gini = 0.667<br/>samples = 3<br/>value = [0, 0, 0 ... 0, 0, 0]>, fillcolor="#ffffff"] ;
785 -> 786 ;
787 [label=<gini = 0.0<br/>samples = 1<br/>value = [0, 0, 0 ... 0, 0, 0]>, fillcolor="#a0e539"] ;
786 -> 787 ;
788 [label=<x<SUB>5</SUB> &le; 20.5<br/>gini = 0.5<br/>samples = 2<br/>value = [0, 0, 0 ... 0, 0, 0]>, fillcolor="#ffffff"] ;
786 -> 788 ;
789 [label=<gini = 0.0<br/>samples = 1<br/>value = [0, 0, 0 ... 0, 0, 0]>, fillcolor="#50e539"] ;
788 -> 789 ;
790 [label=<gini = 0.0<br/>samples = 1<br/>value = [0, 0, 0 ... 0, 0, 0]>, fillcolor="#56e539"] ;
788 -> 790 ;
791 [label=<x<SUB>3</SUB> &le; 2.5<br/>gini = 0.667<br/>samples = 3<br/>value = [0, 0, 0 ... 0, 0, 0]>, fillcolor="#ffffff"] ;
785 -> 791 ;
792 [label=<gini = 0.0<br/>samples = 1<br/>value = [0, 0, 0 ... 0, 0, 0]>, fillcolor="#ace539"] ;
791 -> 792 ;
793 [label=<x<SUB>3</SUB> &le; 50.5<br/>gini = 0.5<br/>samples = 2<br/>value = [0, 0, 0 ... 0, 0, 0]>, fillcolor="#ffffff"] ;
791 -> 793 ;
794 [label=<gini = 0.0<br/>samples = 1<br/>value = [0, 0, 0 ... 0, 0, 0]>, fillcolor="#ace539"] ;
793 -> 794 ;
795 [label=<gini = 0.0<br/>samples = 1<br/>value = [0, 0, 0 ... 0, 0, 0]>, fillcolor="#e2e539"] ;
793 -> 795 ;
796 [label=<x<SUB>1</SUB> &le; 1.5<br/>gini = 0.974<br/>samples = 39<br/>value = [0, 0, 0 ... 0, 0, 0]>, fillcolor="#ffffff"] ;
768 -> 796 ;
